GIS
1
0.0
18
Expansion.Conjunction
Contingency.Condition
Contingency.Cause.Reason
Contingency.Cause.Result
Comparison.Concession
Temporal.Asynchronous.Precedence
Expansion
Expansion.Alternative
Comparison.Contrast
Expansion.Restatement
Temporal.Asynchronous.Succession
Temporal.Synchrony
Temporal.Asynchronous
Comparison
Expansion.Instantiation
alternative
Expansion.Exception
Temporal
291
1055 0
15 0 1
1 0 1 2 3 4 5 6 7 8 9 10 11 12 13 14
1 0 1 2 3 4 5 6 7 8 9 10 11 12 13 14 15
4 0 1 2 3 4 5 6 7 8 9 10 11 12 13 14 15 16
2 0 1 2 3 4 5 6 7 8 9 10 11 12 13 14 15 16 17
3 0 1 2 3 4 5 6 7 8 9 10 11 13 14
2 0 1 2 3 4 5 6 7 8 9 10 11 13 14 15
5 0 1 2 3 4 5 6 7 8 9 10 11 13 14 15 16
3 0 1 2 3 4 5 6 7 8 9 10 11 13 14 17
1 0 1 2 3 4 5 6 8 9 10 11 13 14 15
1 0 1 2 3 4 5 6 8 9 11 14
1 0 1 2 3 4 5 7 8 9 10 11 12 13 14 15
1 0 1 2 3 4 5 7 8 9 10 11 12 13 14 15 16
1 0 1 2 3 4 5 7 8 9 10 11 12 13 14 16
1 0 1 2 3 4 5 7 8 9 10 11 12 13 15
2 0 1 2 3 4 5 7 8 9 10 11 13 14
1 0 1 2 3 4 5 7 8 9 10 11 14
1 0 1 2 3 4 5 7 8 9 10 13 14
1 0 1 2 3 4 5 7 8 10 11
1 0 1 2 3 4 5 7 8 10 11 13 14 15
1 0 1 2 3 4 5 8 9 10 11 12 13 14 15
1 0 1 2 3 4 5 8 9 10 11 13 14
1 0 1 2 3 4 5 8 9 14 15
1 0 1 2 3 4 5 8 10 11 14 15
1 0 1 2 3 4 5 8 13
1 0 1 2 3 4 6 7 8 9 10 11 13 14
1 0 1 2 3 4 6 7 8 10 11 13 14 15 16
1 0 1 2 3 5 7 10 11 14 15
1 0 1 2 3 5 8 9 10 11 14
1 0 1 2 3 8 10 11 13 14 15
1 0 1 2 4 5 7 8 9 10 11 13 14 15
1 0 1 2 4 5 8 9 11 13 14
1 0 1 2 4 5 8 9 11 14
1 0 1 2 4 5 8 10
2 0 1 2 4 5 8 10 11 13
1 0 1 2 4 5 8 10 11 13 14
1 0 1 2 4 7 8 10 13
1 0 1 2 4 8 11
1 0 1 2 4 11
1 0 1 2 5 7 8 13
1 0 1 2 6 9 14
2 0 1 3
1 0 1 3 4 5 6 7 8 10 13 15
1 0 1 3 4 5 6 8 9 13 14 15 16
1 0 1 3 4 5 7 8 9
1 0 1 3 4 5 7 8 9 11 13 14
1 0 1 3 4 5 7 8 11 13 14
1 0 1 3 4 5 8 10 11 14
1 0 1 3 4 5 8 10 15
1 0 1 3 4 5 8 11 13
1 0 1 3 4 7 8 9 11
1 0 1 3 4 7 8 9 13 14
1 0 1 3 4 7 8 10 13 14
1 0 1 3 4 8
1 0 1 3 4 8 9 11 13
1 0 1 3 5 8
1 0 1 3 5 9 11 12
1 0 1 3 7 8 10 13 14 15
2 0 1 3 8
1 0 1 3 8 11
1 0 1 3 10
1 0 1 3 10 14
1 0 1 4 5 6 7 8 9 10 14
2 0 1 4 5 7 8 9 11 13 14
1 0 1 4 5 8 9 13 14 15
1 0 1 4 5 8 10 13
1 0 1 4 8 9
1 0 1 4 8 11
1 0 1 4 8 11 13
3 0 1 4 8 13
2 0 1 5 8
1 0 1 5 8 9
1 0 1 5 11
1 0 1 6 7 8 9 10
2 0 1 7 8 11 14
1 0 1 7 8 11 15
1 0 1 7 8 13 14
3 0 1 8
1 0 1 8 9
3 0 1 8 10
1 0 1 8 10 11
1 0 1 8 11
1 0 1 8 13
1 0 1 10
1 0 1 10 11
2 0 1 11
2 0 1 14
14 0 2
2 0 2 3 4
1 0 2 3 4 5 6 8 11 13
1 0 2 3 4 5 8 10 11 14
1 0 2 3 4 6 8 13 14
1 0 2 3 8 9 11 12 16
1 0 2 3 8 10 14
1 0 2 3 8 10 16
1 0 2 4
1 0 2 4 5 8 9
1 0 2 4 5 8 11
1 0 2 4 6 8 9
1 0 2 4 7 8 13
1 0 2 4 8 10
1 0 2 4 8 13
1 0 2 4 8 13 14
1 0 2 4 8 13 14 16
1 0 2 4 9
1 0 2 4 11
1 0 2 5 8 10 11 13
1 0 2 6 8 9 10 13 14
1 0 2 6 9 14
1 0 2 8 9
1 0 2 8 10 11
1 0 2 8 13
1 0 2 8 13 14
1 0 2 8 14
1 0 2 9
3 0 2 11
1 0 2 13
1 0 2 14
8 0 3
1 0 3 4 5 6 8 9 11 12
1 0 3 4 5 6 8 9 13 14 16
1 0 3 4 5 7 8 11 13 14
1 0 3 4 5 8 11
1 0 3 4 6
1 0 3 4 6 7 8
1 0 3 4 6 8 14
1 0 3 4 7 8 13 16
1 0 3 4 8
1 0 3 4 8 9 11 13 14
2 0 3 4 8 10 11 14
2 0 3 4 8 14
1 0 3 5
1 0 3 5 9 11 12
1 0 3 6 8 9 12
1 0 3 8
1 0 3 8 10 11 15
1 0 3 8 11
1 0 3 11
1 0 3 14
6 0 4
1 0 4 5 7 8
1 0 4 5 8 10 11
1 0 4 6 8 13
1 0 4 7
2 0 4 7 8
1 0 4 7 8 10
3 0 4 8
1 0 4 8 9 15
1 0 4 8 10
1 0 4 8 10 11
1 0 4 8 10 14
5 0 4 8 11
1 0 4 8 11 13
7 0 4 8 13
3 0 4 8 13 14
2 0 4 8 14
1 0 4 12
1 0 4 13
1 0 4 14
9 0 5
1 0 5 6
1 0 5 6 8 9
1 0 5 6 11
3 0 5 8
1 0 5 8 13
1 0 5 9 14
1 0 5 10
1 0 5 10 11
2 0 5 14
1 0 6 8 9 13
8 0 7
4 0 7 8
1 0 7 8 13
41 0 8
3 0 8 9
4 0 8 10
4 0 8 11
1 0 8 11 15
1 0 8 13
1 0 8 14
8 0 9
1 0 9 10 11
1 0 9 10 14
1 0 9 13 15
10 0 10
2 0 10 11
2 0 10 14
7 0 11
1 0 11 13
4 0 13
5 0 14
1 0 15
284 1
4 1 2
1 1 2 4 5 7 8 9 10 11 14
1 1 2 4 8 10 11
1 1 2 5 10 11 14 17
1 1 3
1 1 3 4 8 13
1 1 3 7
5 1 4
2 1 5
1 1 5 8
1 1 7 8 16
9 1 8
1 1 8 14
2 1 9 11 14
2 1 10
2 1 10 11
10 1 11
3 1 13
1 1 14
1 1 16
418 2
1 2 3 5 10
3 2 4
1 2 4 10 11
1 2 7
6 2 8
1 2 8 10 11
2 2 9
3 2 10
18 2 11
1 2 13
3 2 14
107 3
2 3 4 8
1 3 5
3 3 8
1 3 10
91 4
1 4 5
2 4 5 6
1 4 5 8 9
1 4 5 8 11 13
3 4 6
2 4 7
13 4 8
1 4 8 9 13
3 4 8 9 15
1 4 8 10
1 4 8 11
1 4 8 11 13
11 4 8 13
1 4 8 13 14
1 4 8 13 16
1 4 8 14
7 4 10
4 4 11
1 4 13
292 5
1 5 6
1 5 6 9
1 5 6 15
1 5 7 8 16
8 5 8
1 5 8 13
7 5 10
1 5 11 13
1 5 13
3 5 14
9 6
77 7
4 7 8
1 7 8 9 14
1 7 8 14 15
1 7 8 15
1 7 14
1 7 16
330 8
2 8 9
1 8 9 10
8 8 10
11 8 11
3 8 13
1 8 14
1 8 15
25 9
1 9 11
3 9 14
335 10
8 10 11
3 10 13
384 11
3 12
31 13
24 14
25 15
6 16
1 17
4106
Cprev=if_around
Cprev=until_that
Cprev=also_Most
Cprev=and_stronger
Cprev=and_revenue
Cprev=and_rise
Cprev=and_volatile
Cprev=also_Salespeople
Cprev=also_Sports
Cprev=also_Both
Cprev=and_quadrupeds
Cprev=and_perestroika
Cprev=also_benefits
Cprev=and_programs
Cprev=also_S.A.
Cprev=also_Ministry
Cprev=also_quiet
Cprev=also_monitor
Cprev=and_conflict
Cprev=and_wrong
Cprev=as_well_merchandise
Cprev=and_stuff
Cprev=and_reaction
Cprev=also_Reynolds
CPOS=NNP
Cprev=and_ruptured
Cprev=also_children
Cprev=also_Par
Cprev=and_damage
Cprev=also_others
Cprev=because_profits
Cprev=also_ads
Cprev=also_aids
Cprev=and_sentences
Cprev=when_jailed
Cprev=also_Westinghouse
Cprev=also_Citicorp
Cprev=and_products
Cprev=also_Smith
Cprev=also_labs
Cprev=and_artwork
Cprev=and_yen
Cprev=also_Investors
Cprev=and_dictatorship
Cprev=also_pricing
Cprev=because_worse
Cprev=also_hideaway
Cprev=because_memory
Cprev=also_division
Cprev=and_agreement
Cprev=and_position
Cprev=when_getting
Cprev=also_committee
Cstring=furthermore
RSC=VBP
Cprev=if_buy-out
Cprev=and_harvest
Cprev=and_reduction
Cprev=and_followed
Cprev=and_machines
Cprev=and_company
Cprev=also_association
Cprev=and_gray
Cprev=while_organization
Cprev=and_Australia
Cprev=also_Caterpillar
Cprev=as_rising
Cprev=also_Wardwell
Cprev=as_long_as_anticipated
Cprev=and_canceled
Cprev=and_gently
Cprev=when_bonus
Cprev=also_stocks
Cprev=and_prescriptions
Cprev=also_Dorgan
Cprev=also_PWA
Cprev=and_buy-out
Cprev=also_Exchange
Cprev=also_Airlines
Cprev=and_amusing
Cprev=also_quake
Cprev=also_Association
Cprev=also_Akzo
Cprev=also_spokesman
Cprev=if_payments
Cprev=and_metal
Cprev=also_investigation
Cprev=and_documents
Cprev=if_years
Cprev=and_PLC
Cprev=and_numbers
Cprev=also_expense
Cprev=and_trimmed
Cprev=also_robberies
Cprev=also_Roman
Cprev=and_enormous
Cprev=also_rate
Cprev=also_exchange
Cprev=if_move
Cprev=also_Officials
Cprev=later_questions
Cprev=also_Weinstein
Cprev=also_issue
Cprev=and_performance
Cprev=also_-RRB-
Cprev=also_yesterday
Cprev=now_that_sharply
Cprev=and_outstanding
Cprev=and_revamping
Cprev=and_weaker
Cprev=and_computers
Cprev=also_Olivetti
Cprev=also_Galileo
Cprev=and_pumped
Cprev=also_defense
Cprev=thus_;
Cprev=before_builders
Cprev=also_employees
Cprev=indeed_do
Cprev=also_Storer
Cprev=also_groups
Cprev=and_daring
Cprev=also_airline
Cprev=and_mark
Cprev=also_president
Cprev=also_chamber
Cprev=also_Rock
Cprev=also_deliveries
Cprev=also_office
Cprev=also_Nissan
Cprev=because_advertisers
Cprev=also_Lauder
Cprev=and_word
Cprev=also_Cross
Cprev=as_a_result_margins
Cprev=also_pound
Cprev=and_proceedings
Cprev=moreover_,
Cprev=and_exasperation
Cprev=and_power
Cprev=and_own
Cprev=and_established
Cprev=if_timely
Cprev=before_bonds
Cprev=and_1930s
Cprev=and_levels
Cprev=also_Phillips
Cprev=and_work
Cprev=also_resorts
Cprev=and_lost
Cprev=when_hurt
Cprev=and_schoolteachers
Cprev=and_defrauded
Cprev=also_staff
Cprev=once_board
Cprev=similarly_null
Cprev=also_AFL-CIO
Cprev=also_Gelbart
Cprev=and_feet
Cprev=also_Loral
Cprev=also_Whitbread
Cprev=and_advanced
Cprev=also_lawsuit
Cprev=and_out
Cprev=and_mid-1990s
Cprev=and_inevitable
Cprev=also_critics
Cprev=and_person
Cprev=also_devaluation
Cprev=and_ailment
Cprev=if_rosier
Cprev=and_catalog
Cprev=also_Torchmark
Cprev=also_Chugai
Cstring=moreover
Cprev=and_edition
Cprev=and_homeless
Cprev=and_many
Cprev=and_Cleveland
Cprev=specifically_Congress
Cprev=also_Lawson
Cprev=also_recorder
Cprev=while_And
Cprev=as_York
Cprev=if_subsidiary
Cprev=also_lawyers
Cprev=and_Reagan
Cprev=and_Freud
Cprev=also_Fed
Cprev=and_ownership
Cprev=and_beautiful
Cprev=while_integrity
Cprev=and_resistant
Cprev=and_test
Cprev=also_selling
Cprev=also_mania
Cprev=and_down
Cprev=and_usual
Cprev=also_Finkelstein
Cprev=when_declines
Cprev=and_France
Cprev=while_improved
Cprev=as_period
Cprev=separately_which
Cprev=also_There
Cprev=also_researchers
Cprev=also_supplier
Cprev=also_Poughkeepsie
Cprev=also_averages
Cprev=furthermore_,
Cprev=and_slowing
Cprev=and_further
Cprev=and_buying
Cprev=and_1\/4
Cprev=and_reform
Cprev=also_concerns
Cprev=also_Maxicare
Cprev=and_1\/8
Cprev=and_hours
Cprev=also_Columbia
Cprev=furthermore_He
Cprev=when_shareholders
Cprev=now_that_and
Cprev=and_future
Cprev=and_turmoil
Cprev=also_leathers
Cprev=also_Journal
Cprev=and_conclude
Cprev=also_Hewlett-Packard
Cprev=also_Merrill
Cprev=and_York
Cprev=and_responsibility
Cprev=while_bought
Cprev=before_markets
Cprev=and_revenues
Cprev=and_points
Cprev=and_times
Cprev=also_Specialized
Cprev=also_complaint
Cprev=and_arouse
Cprev=also_Group
Cprev=and_brief
Cprev=indeed_adults
Cprev=and_Holding
Cprev=also_Net
Cprev=when_gift
Cprev=since_FASB
Cprev=also_survey
Cprev=also_consultants
Cprev=also_Recognition
Cprev=also_materials
Cprev=and_results
Cprev=and_watt
Cprev=and_smiles
Cprev=also_poll
Cprev=and_-
Cprev=and_proposal
Cprev=and_1
Cprev=as_industry
Cprev=until_and
Cprev=also_trust
Cprev=also_Skase
Cprev=so_that_''
Cprev=also_Dole
Cprev=and_irresponsible
Cprev=likewise_has
Cprev=also_Carder
Cprev=also_Roche
Cprev=also_Mercury
Cprev=but_grants
Cprev=instead_might
Cprev=also_operators
Cprev=and_thought
Cprev=also_examiner
Cprev=once_again
Cprev=because_declined
Cprev=and_abortion
Cprev=also_bonds
Cprev=also_contract
Cprev=later_York
RSC=SBARQ
Cprev=also_weekend
Cprev=and_institutions
Cprev=and_blacks
Cprev=because_Germany
Cprev=also_drives
Cprev=also_movie
Cprev=and_way
Cprev=and_state
Cprev=also_SEC
Cprev=as_protectionism
Cprev=also_to
Cprev=also_White
Cprev=and_now
Cprev=also_fats
Cprev=and_was
LSC=SBARQ
Cprev=and_credibility
Cprev=also_Spiegel
Cprev=also_Inc.
Cprev=because_buying
Cprev=also_exchanges
Cprev=and_contiguous
Cprev=and_shown
Cprev=if_reorganization
Cprev=if_operations
Cprev=also_refiner
Cprev=then_since
Cprev=also_Osborn
Cprev=also_issues
Cprev=after_secrets
Cprev=and_Leipzig
Cprev=and_venture
Cprev=also_profits
Cprev=and_director
Cprev=and_states
Cprev=when_opportunity
Cprev=and_roads
Cprev=unless_cases
Cprev=and_impractical
Cprev=and_built
Cprev=and_water
Cprev=if_...
Cprev=instead_Francisco
Cprev=later_furs
Cprev=then_even
Cprev=and_elections
Cprev=also_investors
Cprev=also_squalor
Cprev=also_Trading
Cprev=also_Fournier
Cprev=after_them
Cprev=and_operation
Cprev=also_Lippens
Cprev=further_himself
Cprev=also_Ross
Cprev=and_unacceptable
Cprev=also_Bureau
Cprev=also_Animals
Cprev=then_...
Cprev=also_September
Cprev=also_memo
Cprev=and_operating
Cprev=and_shook
Cprev=also_countries
Cprev=also_Nadeau
Cprev=also_companies
Cprev=and_exchange
Cprev=also_Avon
Cprev=when_tools
Cprev=and_prices
Cprev=and_deception
Cprev=also_approval
Cprev=also_jury
Cprev=though_And
Cprev=also_Standard
Cprev=and_knots
Cprev=next_come
Cprev=also_statement
Cprev=and_ranges
Cprev=and_Macmillan
Cprev=also_Conner
Cprev=also_some
Cprev=also_agreement
Cprev=also_JAL
Cprev=and_much
Cprev=also_Harken
Cprev=also_money
Cprev=and_will
Cprev=and_20.125
Cprev=and_strip
Cprev=rather_or
Cprev=and_lists
Cprev=also_Wathen
Cprev=also_Brady
Cprev=also_Campbell-Mithun
Cprev=and_stocks
Cprev=and_investigation
Cprev=when_career
Cprev=also_Entertainment
Cprev=and_defective
Cprev=after_period
Cprev=and_area
Cprev=also_Azoff
Cprev=in_fact_``
Cprev=and_days
Cprev=also_sort
Cprev=also_plans
Cprev=also_ruling
Cprev=also_Gorbachev
Cprev=also_proposal
Cprev=also_offer
Cprev=and_life
Cprev=as_a_result_made
Cprev=and_crime
Cprev=and_come
Cprev=also_bid
Cprev=when_errs
Cprev=and_Board
Cprev=after_will
Cprev=also_decline
Cprev=and_industry
Cprev=after_underwriters
Cprev=and_hell
Cprev=also_cars
Cprev=and_money
Cstring=additionally
Cprev=when_York
Cprev=when_quotes
Cprev=as_investments
Cprev=also_book
Cprev=now_that_And
Cprev=also_ITT
Cprev=if_Salvador
Cprev=also_S&P
Cprev=after_puts
Cprev=also_she
Cprev=also_parent
Cprev=and_officer
Cprev=when_team
Cprev=also_IRS
Cprev=and_devalued
Cprev=also_Roberts
Cprev=also_Department
Cprev=also_doctors
Cprev=and_confused
Cprev=also_administration
Cprev=also_show
Cprev=and_month
Cprev=and_damages
Cprev=and_800,000
Cprev=and_head
Cprev=additionally_null
Cprev=also_Delmed
Cprev=also_outlook
Cprev=because_appeal
Cprev=and_3\/4
Cprev=also_carrier
Cprev=when_functionaries
Cprev=and_talks
Cprev=and_potential
Cprev=but_earnings
Cprev=if_insured
Cprev=also_Stocks
Cprev=also_options
Cprev=also_managers
Cprev=and_them
Cprev=and_consultants
Cprev=because_loans
Cprev=as_a_result_resume
Cprev=also_move
Cprev=also_I.C.H.
Cprev=also_Jiang
Cprev=also_Dealers
Cprev=if_means
Cprev=also_IMA
Cprev=and_caught
Cprev=additionally_team
Cprev=also_Breeden
Cprev=and_service
Cprev=also_BellSouth
Cprev=and_oversold
Cprev=while_and
Cprev=and_990,000
Cprev=and_attack
Cprev=also_U.K.
Cprev=also_thrift
Cprev=and_Steel
Cprev=also_figures
Cprev=when_remorse
Cprev=also_Jarrett
Cprev=also_Zoeller
Cprev=also_Eagle
Cprev=while_higher
Cprev=while_operations
Cprev=also_machinists
Cprev=before_is
Cprev=and_four
Cprev=because_growth
Cprev=also_Club
Cprev=also_Mips
Cprev=while_rent
Cprev=though_housing
Cprev=and_develop
Cprev=also_Integrated
Cprev=and_premium
Cprev=also_Board
Cprev=and_weeks
Cprev=also_IBM
Cprev=and_Fame
Cprev=also_Bank
Cprev=and_product
Cprev=and_picture
Cprev=and_347.13
Cprev=also_Canada
Cprev=and_redesigned
Cprev=also_models
Cprev=and_today
Cprev=or_caught
Cprev=and_grow
Cstring=further
Cprev=also_and
Cprev=also_Edelstein
Cprev=also_collectibles
Cprev=also_unit
Cprev=also_inquiry
Cprev=also_partnership
Cprev=and_fanny
Cprev=also_all
Cprev=also_Peters
Cprev=also_legislation
Cprev=also_Analog
Cprev=and_demand
Cprev=and_period
Cstring=similarly
Cprev=also_accord
Cprev=also_disabled
Cprev=also_Fighting
Cprev=and_killed
Cprev=if_Monroe
Cprev=and_slide
Cprev=and_adjustments
Cprev=if_England
Cprev=and_Services
Cprev=also_Co.
Cprev=also_Toney
Cprev=and_reported
Cprev=so_And
RSC=-RRB-
Cprev=and_districts
Cprev=also_Intel
Cprev=and_vehicles
Cprev=also_UNC
Cprev=as_well_thereafter
Cprev=when_quarter
Cprev=and_factory
Cprev=and_low
Cprev=and_advisers
Cprev=also_surge
Cprev=also_transaction
Cprev=also_Cathay
Cprev=and_case
Cprev=also_Subscribers
Cprev=also_editor
Cprev=also_Institute
Cprev=as_well_participate
Cprev=and_day
Cprev=also_union
Cprev=also_prospectus
Cprev=also_filing
Cprev=also_Finanziaria
Cprev=also_agency
Cprev=after_1988
Cprev=also_package
Cprev=plus_null
Cprev=likewise_null
Cprev=and_acre
Cprev=and_financing
Cprev=and_public
Cprev=also_D.T.
Cprev=also_funds
Cprev=and_resigned
Cprev=also_Schwarz
Cprev=also_left
Cprev=also_Conferees
Cprev=also_Quebecor
Cprev=then_Chestman
Cprev=so_payments
Cprev=and_scarce
Cprev=also_group
Cprev=and_crossroads
Cprev=also_,
Cprev=and_retired
Cprev=also_makers
Cprev=also_subsidiary
Cprev=though_and
Cprev=and_due
Cprev=and_territory
Cprev=also_UAW
Cprev=as_to
Cprev=also_scene
Cprev=also_Staff
Cprev=also_--
Cprev=and_320.54
Cprev=also_people
Cprev=also_Channel
Cprev=also_official
Cprev=similarly_has
Cprev=and_approved
Cprev=and_plate
Cprev=and_vogue
Cprev=and_circulation
Cprev=also_earnings
Cprev=as_Tuesday
Cprev=as_124
Cprev=also_Japanese
Cprev=also_Amoco
Cprev=also_Beach
Cprev=and_reached
Cprev=also_Rico
Cprev=also_Dalton
Cprev=and_reinvested
Cprev=also_report
Cprev=if_sentences
Cprev=and_people
Cprev=and_purchases
Cprev=also_experts
Cprev=and_halted
Cprev=and_city
Cprev=and_earlier
Cprev=also_Lawyers
Cprev=also_Banks
Cprev=and_contracts
Cprev=also_announcements
Cprev=as_5\/8
Cprev=when_dissent
Cprev=also_newspaper
Cprev=also_producer
Cprev=and_CD
Cprev=also_Ashland
Cprev=also_producers
Cprev=also_units
Cprev=also_prices
Cprev=and_pipeline
Cprev=also_''
Cprev=also_Sun
Cprev=also_TVS
Cprev=and_Inc.
Cprev=since_York
Cprev=also_Germany
Cprev=also_Dinkins
Cprev=also_Kaifu
Cprev=also_Allianz
Cprev=and_revisions
Cprev=and_320.94
Cprev=also_personnel
Cprev=and_positions
Cprev=also_men
Cprev=also_Massage
Cprev=and_complicated
Cprev=and_Noriega
Cprev=also_Illuminating
Cprev=also_Politics
Cprev=also_months
Cprev=and_Inco
Cprev=and_AG
Cprev=when_more
Cprev=if_liberalizations
Cprev=also_may
Cprev=also_court
Cprev=as_soon_as_contract
Cprev=also_park
Cprev=also_uncertainty
Cprev=also_Mitterrand
Cprev=and_5\/8
Cprev=and_range
Cprev=also_couples
Cprev=also_customers
Cprev=and_rule
Cprev=and_loans
Cprev=ultimately_would
Cprev=also_adjustment
Cprev=also_slowdown
Cprev=also_1992
Cprev=and_gulf
Cprev=and_semiconductors
Cprev=and_delegation
Cprev=also_Dana
Cprev=and_place
Cprev=and_73
Cprev=also_Calloway
Cprev=also_downturn
Cprev=next_The
Cprev=also_holders
Cprev=and_fall
Cprev=also_equipment
Cprev=also_She
Cprev=and_English
Cprev=also_Taylor
Cprev=also_reportedly
Cprev=yet_dividend
Cprev=if_device
Cprev=and_92
Cprev=also_fund
Cprev=and_information
Cprev=also_strength
Cprev=also_Kochan
Cprev=and_fluke
Cprev=and_32
Cprev=if_heroes
Cprev=or_decline
Cprev=also_price
Cprev=and_36
Cprev=and_globe
Cprev=also_Tandy
Cprev=also_Convex
Cprev=and_morning
Cprev=and_50
Cprev=also_products
Cprev=also_market
Cprev=and_58
Cprev=also_Kemper
Cprev=and_filed
Cprev=further_null
Cprev=also_Scientists
Cprev=as_behind
Cprev=also_mill
Cprev=also_bill
Cprev=also_problems
Cprev=and_fine-tuning
Cprev=and_appraisal
Cprev=also_businesses
Cprev=then_Even
Cprev=as_Treasurys
Cprev=also_Mercedes-Benz
Cprev=and_strategy
Cprev=and_trade-offs
Cprev=and_25
Cprev=and_27
Cprev=also_hearings
Cprev=and_ready
Cprev=as_increasing
Cprev=also_Data
RSC=NX
Cprev=and_yesterday
Cprev=unless_September
Cprev=also_provisions
Cprev=until_flat
Cprev=because_investment
Cprev=also_have
Cprev=also_markets
Cprev=if_know-how
Cprev=also_Corry
Cstring=plus
Cprev=also_KKR
Cprev=and_droppable
Cprev=also_segment
Cprev=and_home
Cprev=also_harvest
Cprev=also_pact
Cprev=also_Graphics
Cprev=and_steadily
Cprev=also_Steinhardt
Cprev=and_tomorrow
Cprev=and_economy
Cprev=before_consideration
Cprev=because_logical
Cprev=if_open
Cprev=so_recently
Cprev=also_Ford
Cprev=and_lightheaded
Cprev=and_malice
Cprev=and_true
Cprev=also_interest
Cprev=and_account
Cprev=also_Corp.
Cprev=also_bankers
Cprev=also_Prices
Cprev=and_Skinner
RSC=RRC
Cprev=and_considerably
Cprev=also_trading
Cprev=and_'s
Cprev=and_border
Cprev=and_law
Cprev=while_reality
Cprev=so_robes
Cprev=and_1,920
LSC=MD
Cprev=also_analysts
Cprev=and_mean
Cprev=also_effort
Cprev=yet_And
Cprev=also_House
Cprev=also_Cairo
Cprev=also_GM
Cprev=also_Fe
Cprev=also_They
Cprev=also_Marina
Cprev=separately_Warner
Cprev=and_surge
Cprev=and_junk
Cprev=before_work
Cprev=while_rally
Cprev=also_Australia
Cprev=also_He
LSC=NX
Cprev=also_BNL
Cprev=and_System
Cprev=also_That
Cprev=also_Roh
Cprev=also_Fried
Cprev=and_SHV
Cprev=also_Johnson
Cprev=because_insurance
Cprev=and_2,010
Cprev=as_76.50
Cprev=and_-LCB-
Cprev=and_say
Cprev=and_Daly
Cprev=and_collapsing
Cprev=also_Warner
Cprev=also_dollar
Cprev=and_slipping
Cprev=also_Quotron
Cprev=and_1977
Cprev=since_suspended
Cprev=but_benefits
Cprev=also_Daihatsu
Cprev=because_-LCB-
Cprev=and_away
Cprev=also_volume
Cprev=if_And
Cprev=and_1982
Cprev=also_system
Cprev=in_the_end_and
Cprev=also_introductions
Cprev=also_loss
Cprev=and_Midland
Cprev=also_MiniScribe
Cprev=also_notes
Cprev=because_abandoned
Cprev=also_computer
Cprev=until_decisions
Cprev=also_DaPuzzo
Cprev=moreover_null
Cprev=also_Gonzalez
Cprev=also_Analysts
Cprev=while_building
Cprev=also_Peterson
Cprev=also_quarter
Cprev=and_young
Cprev=besides_,
Cprev=and_selling
Cprev=unless_billion
Cprev=also_Krampe
Cprev=until_take
Cprev=and_operations
Cprev=also_Fleet
Cprev=also_taxes
Cprev=also_judge
Cprev=and_conception
Cprev=also_Greenspan
Cprev=also_prosecutors
Cprev=also_worm
LSC=SINV
Cprev=and_pits
Cprev=also_sides
Cprev=also_Nekoosa
Cprev=also_Simmons
Cprev=and_pace
Cprev=and_Deputies
Cprev=also_study
Cprev=also_board
Cprev=and_accomplished
Cprev=as_a_result_And
Cprev=and_Rubens
Cprev=also_securities
Cprev=and_good
Cprev=also_bureaucracy
Cprev=and_100
Cprev=also_Algeria
Cprev=and_well
Cprev=also_underwriters
Cprev=also_Chemical
Cprev=also_breaks
Cprev=also_Keenan
Cprev=and_torch
Cprev=also_NRM
Cprev=also_ordinance
Cprev=also_thrifts
Cprev=also_Dozen
Cprev=also_business
Cprev=also_Rifenburgh
Cprev=and_business
Cprev=as_options
Cprev=and_room
Cprev=indeed_has
Cprev=also_Sculley
Cprev=and_building
Cprev=when_widens
Cprev=and_dominated
Cprev=also_sentiment
Cprev=and_stabbed
Cprev=since_and
Cprev=and_victims
Cprev=and_again
Cprev=when_then
Cprev=also_Treasury
Cprev=also_seizure
Cprev=and_state-owned
Cprev=also_Asarco
Cprev=as_road
Cprev=and_delays
Cprev=and_victimized
Cprev=also_Unisys
Cprev=also_Producers
Cprev=when_consent
Cprev=then_Since
Cprev=and_bid
Cprev=and_7\/8
Cprev=because_And
Cprev=also_Chrysler
Cprev=also_Environmental
Cprev=also_directors
Cprev=if_amount
Cprev=and_left
Cprev=also_figure
Cprev=also_rates
Cprev=and_smile
Cprev=also_bank
CPOS=TO
Cprev=also_Utsumi
Cprev=and_sale
Cprev=and_occur
Cprev=also_Bally
Cprev=separately_-LRB-
Cprev=also_Bush
Cprev=also_ownership
Cprev=and_conservative
Cprev=and_trouble
Cprev=as_well_pledged
Cprev=also_null
Cprev=also_pressures
Cprev=also_Jones
Cprev=also_NFL
Cprev=as_industrywide
Cprev=and_fired
Cprev=also_Observers
Cprev=also_Mae
Cprev=also_trucks
Cprev=also_Polls
Cprev=and_changed
Cprev=as_though_down
Cprev=furthermore_null
Cprev=and_26.02
Cprev=and_MGM\/UA
Cprev=also_clearance
Cprev=also_Ovalle
Cprev=also_Patel
Cprev=also_Students
Cprev=also_states
Cprev=also_odd
Cprev=likewise_``
Cprev=also_NBI
Cprev=and_2,120
Cprev=also_operations
Cprev=also_victims
Cprev=and_decided
Cprev=because_Georgia-Pacific
Cprev=also_Goodson
Cprev=also_watchers
Cprev=and_flat
Cprev=and_court
Cprev=and_separately
Cprev=also_Profit
Cprev=as_well_work
Cprev=also_Kremlin
Cprev=also_commission
Cprev=while_investors
Cprev=also_production
Cprev=also_Etzioni
Cprev=also_news
Cprev=and_traded
Cprev=and_convention
Cprev=also_humans
Cprev=and_firms
Cprev=indeed_and
Cprev=as_well_null
Cprev=also_resolution
Cprev=and_coincidence
Cprev=also_AT&T
Cprev=also_notice
Cprev=also_which
Cprev=also_costs
Cprev=also_Ferro
Cprev=and_quantities
Cprev=also_Guber
Cprev=also_plan
Cprev=also_Pont
Cprev=also_obviously
Cprev=when_time
Cprev=and_involuntarily
Cprev=and_cruisers
Cprev=also_Facilities
Cprev=and_syndrome
Cprev=also_Digital
Cprev=and_of
Cprev=besides_``
Cprev=also_Insurance
Cprev=also_department
Cprev=also_financings
Cprev=after_partner
Cprev=also_Sovran
Cprev=if_profitable
Cprev=and_society
Cprev=also_panel
Cprev=before_know
Cprev=further_is
Cprev=and_318.79
Cprev=also_rebels
Cprev=and_disappointing
Cprev=and_debt
Cprev=also_Critics
Cprev=and_honorariums
Cprev=when_susceptible
Cprev=also_carriers
Cprev=also_demand
Cprev=and_deadline
Cprev=also_Sony
Cprev=also_guidelines
Cprev=also_instrument
Cprev=and_sick
Cprev=and_loose
Cprev=also_Lionel
Cprev=also_Trust
Cprev=and_intensified
Cprev=and_planning
Cprev=before_And
Cprev=also_Texas
Cprev=also_Pittston
Cprev=also_secretary
Cprev=and_recorded
Cprev=and_competitor
Cprev=and_opening
Cprev=and_duration
Cprev=because_reduced
Cprev=also_government
Cprev=and_evacuated
Cprev=and_personnel
Cprev=by_then_And
Cprev=nor_economy
Cprev=and_sought
Cprev=and_ago
Cprev=and_Columbia
Cprev=and_HUD
Cprev=also_mother
Cprev=when_unavailable
Cprev=also_Khan
Cprev=also_changes
Cprev=also_period
Cprev=and_overcrowded
Cprev=because_others
PC=NX
Cprev=also_remarks
Cprev=also_Warnaco
Cprev=and_Buzzell
Cprev=also_Lee
Cprev=and_platform
Cprev=and_summer
Cprev=and_furnaces
Cprev=also_International
Cprev=and_rates
Cprev=and_vacant
Cprev=also_net
Cprev=also_will
Cprev=if_bill
Cprev=if_interest
Cprev=if_return
Cprev=when_IBM
Cprev=and_U.S.
Cprev=as_long_as_continue
Cstring=likewise
Cprev=also_should
Cprev=when_share
Cprev=if_products
Cstring=as_well
Cprev=also_officials
Cprev=and_road
Cprev=if_days
CPOS=PP
PC=VP
PC=S
Cstring=and
CPOS=IN
CPOS=CC
RSC=null
LSC=null
RSC=,
LSC=NP
Cstring=before
Cstring=as
LSC=,
RSC=S
Cstring=if
PC=SBAR
PC=ADVP
CPOS=RB
PC=WHADVP
CPOS=WRB
Cstring=when
Cprev=and_,
CPOS=SBAR
LSC=CC
RSC=NP
PC=PP
RSC=VP
LSC=RB
LSC=S
PC=NP
RSC=PRN
Cstring=until
Cstring=then
Cstring=after
Cstring=also
Cprev=if_,
CPOS=ADVP
RSC=ADJP
Cstring=while
RSC=SBAR
Cprev=then_and
PC=ADJP
Cstring=so
Cstring=because
RSC=FRAG
PC=PRN
RSC=NN
Cstring=once
Cstring=since
LSC=ADVP
RSC=``
LSC=ADJP
PC=MD
RSC=MD
Cstring=indeed
Cprev=so_that_,
Cprev=also_that
RSC=RB
Cstring=but
LSC=VP
LSC=:
RSC=PP
Cstring=later
Cprev=then_,
RSC=JJ
Cstring=unless
LSC=PRN
LSC=SBAR
RSC=CC
Cstring=though
Cprev=and_%
Cstring=in_turn
Cstring=instead
Cstring=so_that
Cprev=so_and
RSC=DT
Cprev=thus_and
Cstring=thus
Cstring=or
Cstring=however
Cprev=however_,
Cprev=but_,
Cstring=still
Cprev=if_null
PC=RB
PC=JJ
Cprev=if_that
PC=UCP
Cprev=if_even
Cprev=also_it
LSC=NN
RSC=TO
Cprev=until_,
Cprev=or_,
Cprev=as_long
Cstring=as_long_as
PC=CONJP
PC=SQ
Cprev=if_losses
Cprev=if_''
Cprev=also_could
Cprev=if_said
Cprev=once_,
Cprev=if_and
PC=VB
Cprev=when_that
Cprev=when_futures
Cprev=if_``
Cprev=and_failed
Cprev=when_''
Cprev=when_only
Cprev=when_and
Cprev=for_instance_,
Cstring=for_instance
Cprev=because_part
Cprev=because_and
Cprev=because_resigned
Cprev=and_companies
Cprev=because_case
Cprev=for_null
Cprev=because_costs
Cprev=because_lower
Cprev=and_disaster
Cprev=because_quickly
Cprev=because_veto
Cprev=as_costs
Cprev=also_Viacom
Cprev=and_bought
Cprev=therefore_and
Cstring=therefore
Cprev=as_,
Cstring=now_that
LSC=``
RSC=IN
Cprev=so_,
Cprev=and_''
Cprev=also_would
PC=DT
RSC=PRP
Cstring=in_the_end
PC=FRAG
Cprev=since_,
Cprev=also_they
Cprev=although_,
Cstring=although
LSC=JJ
Cprev=when_even
PC=CC
Cstring=in_fact
Cprev=indeed_null
Cprev=because_--
Cprev=since_null
Cprev=also_is
Cprev=because_,
Cstring=for
Cprev=and_up
Cprev=as_rose
Cprev=when_earnings
Cprev=as_quarter
Cprev=since_that
Cprev=as_up
Cprev=so_``
Cprev=as_a_result_,
Cstring=thereby
Cstring=as_a_result
Cprev=as_a_result_null
Cprev=thereby_,
Cprev=and_river
Cprev=then_And
LSC=IN
Cprev=but_null
RSC=ADVP
PC=TO
RSC=WHADVP
PC=SBARQ
LSC=VB
LSC=''
Cprev=and_there
Cprev=while_,
Cstring=as_soon_as
Cprev=as_soon
Cprev=and_null
Cprev=and_--
Cprev=in_turn_,
Cprev=in_turn_which
LSC=PP
Cprev=so_null
PC=PRP
Cprev=and_year
Cprev=later_back
Cprev=thus_,
Cprev=and_back
Cprev=and_strong
Cprev=also_stock
Cprev=although_And
Cprev=as_and
Cprev=still_can
PC=SINV
PC=NN
Cprev=while_But
Cprev=if_or
Cstring=nor
Cprev=nor_,
RSC=SQ
Cprev=also_can
Cprev=although_that
Cstring=on_the_other_hand
Cstring=rather
Cstring=previously
LSC=DT
Cprev=after_,
Cprev=meanwhile_null
Cprev=meantime_the
Cstring=meantime
CPOS=NN
Cstring=meanwhile
Cprev=though_even
Cprev=when_but
Cprev=yet_and
Cprev=also_are
Cprev=as_But
Cprev=still_null
Cprev=while_that
Cprev=then_But
Cprev=yet_null
Cprev=but_``
Cstring=yet
Cprev=also_he
Cprev=but_--
Cprev=after_and
Cprev=still_they
Cprev=although_--
Cprev=before_days
Cprev=before_just
Cprev=before_offer
Cstring=next
Cprev=before_months
Cprev=ultimately_that
Cprev=and_offer
Cprev=and_return
Cprev=until_it
Cprev=finally_null
Cstring=ultimately
Cstring=finally
Cprev=before_years
LSC=VBD
Cprev=then_would
Cprev=before_,
CPOS=JJ
CPOS=RBR
Cstring=by_then
Cprev=later_but
Cprev=then_null
Cprev=in_fact_null
RSC=VBD
Cprev=separately_null
Cstring=separately
Cprev=or_''
Cprev=and_hurt
Cprev=and_injured
Cprev=unless_``
Cprev=and_closed
Cprev=unless_,
Cprev=nor_null
Cstring=besides
RSC=SINV
RSC=VBZ
Cprev=and_plan
Cprev=also_Noriega
Cprev=also_Soviets
Cprev=and_...
RSC=X
Cprev=also_sales
Cprev=in_addition_null
RSC=NNS
Cprev=and_-RCB-
Cprev=on_the_other_hand_null
Cprev=and_1\/2
Cprev=also_has
Cprev=also_gains
Cprev=also_traders
Cprev=and_'
Cprev=and_legislation
Cprev=when_losses
Cprev=also_firm
Cprev=besides_null
Cprev=and_3\/8
Cprev=also_measure
Cprev=and_-RRB-
Cprev=and_billion
Cprev=though_But
Cprev=also_there
Cprev=and_more
Cprev=also_executives
Cprev=when_tight
Cprev=and_declined
LSC=TO
Cprev=in_fact_;
Cprev=also_were
Cprev=and_point
Cprev=and_price
Cprev=and_million
Cprev=also_who
Cprev=and_on
Cprev=also_was
Cprev=and_process
Cstring=in_addition
Cprev=while_billion
Cprev=though_as
Cstring=as_though
Cstring=overall
Cprev=also_but
Cprev=once_that
Cprev=also_company
Cprev=after_1\/2
Cprev=meanwhile_,
Cprev=and_;
Cprev=while_%
Cprev=as_just
PC=IN
Cprev=also_'s
Cprev=also_It
RSC=:
Cprev=also_shares
Cprev=indeed_is
Cprev=indeed_-LRB-
Cprev=in_the_end_null
Cprev=overall_null
Cprev=indeed_,
Cprev=indeed_;
Cprev=after_years
Cprev=in_fact_,
Cstring=specifically
Cprev=after_5\/8
Cprev=and_fell
Cprev=and_market
Cprev=after_''
Cprev=previously_which
Cprev=after_null
Cprev=and_assets
Cprev=after_month
Cprev=after_year
Cprev=before_hours
Cprev=and_shares
Cprev=then_by
Cprev=when_And
Cprev=and_years
Cprev=as_''
Cprev=also_had
Cprev=and_declining
Cprev=while_employees
Cprev=and_week
Cprev=as_activity
Cprev=as_And
Cprev=also_must
Cprev=also_results
RSC=WP
Cprev=and_quarter
Cprev=and_``
RSC=VBN
Cprev=and_September
Cprev=so_;
CPOS=MD
CPOS=NP
Cprev=instead_and
Cprev=when_exclusively
Cprev=if_me
Cprev=if_over
Cprev=if_deal
Cprev=if_pound
Cprev=if_month
Cprev=if_successively
Cprev=if_up
Cprev=if_way
Cprev=if_to
Cprev=if_swallowed
Cprev=if_lawsuits
Cprev=if_honesty
Cprev=before_imply
Cprev=until_Zealand
Cprev=when_substantially
Cprev=but_you
Cprev=if_markets
Cprev=after_If
Cprev=if_non-deductible
Cprev=if_Paradise
Cprev=when_orders
Cprev=while_prices
Cprev=if_win
Cprev=if_points
Cprev=if_penalized
Cprev=if_be
Cprev=if_U.S.
Cprev=if_survive
Cprev=if_at
Cprev=if_funding
Cprev=if_ship
Cprev=if_fee
Cprev=if_burned
Cprev=if_bankruptcy
Cprev=when_Remics
Cprev=if_in
Cprev=if_more
Cprev=if_contracts
Cprev=if_seizures
Cprev=if_judicially
Cprev=if_forfeitures
Cprev=and_making
Cprev=if_erupt
Cprev=when_used
Cprev=if_Baja
Cprev=if_sports
Cprev=when_brands
Cprev=if_election
Cprev=if_helpful
Cprev=if_hampered
Cprev=if_matter
Cprev=or_changed
Cprev=also_you
Cprev=if_where
Cprev=if_bonds
Cprev=if_worse
Cprev=when_signals
Cprev=if_possible
Cprev=and_example
Cprev=if_Jaguar
Cprev=if_free
Cprev=if_healthy
Cprev=if_happier
Cprev=if_peanuts
Cprev=if_world
Cprev=if_priority
Cprev=in_turn_uncertainty
Cprev=if_bullish
Cprev=if_shrift
Cprev=instead_heart
Cprev=if_expect
Cprev=then_worse
Cprev=if_returns
Cprev=if_back
Cprev=if_knight
Cprev=if_--
Cprev=if_which
Cprev=if_down
Cprev=if_legislation
Cprev=if_10
Cprev=if_11
Cprev=as_long_as_read
Cprev=before_eons
Cprev=when_whitish
Cprev=when_incorrect
Cprev=as_long_as_pasture
Cprev=if_happens
Cprev=also_investments
Cprev=and_complete
Cprev=if_holders
Cprev=if_contract
Cprev=until_agreement
Cprev=if_viable
Cprev=later_front
Cprev=if_aggressive
Cprev=if_Perhaps
Cprev=until_opinion
Cprev=if_paid
Cprev=when_sign
Cprev=lest_,
Cprev=if_insurance
Cprev=when_fight
Cprev=if_advertisers
Cprev=and_professed
Cprev=if_client
Cprev=when_holiday
Cprev=until_electricity
Cprev=if_suspended
Cprev=if_done
Cprev=if_crisis
Cprev=if_banned
Cprev=if_PAY
Cprev=if_winter
Cprev=until_coffin
Cprev=if_liability
Cprev=until_payments
Cprev=and_reduced
Cprev=indeed_If
Cprev=when_protected
Cprev=if_standpoint
Cprev=if_especially
Cprev=as_long_as_cut
Cprev=if_says
Cprev=until_hiding
Cprev=if_out
Cprev=because_sharply
Cprev=if_one
Cprev=if_think
Cprev=if_stand
Cprev=before_it
Cprev=if_orders
Cprev=instead_home
Cprev=when_invective
Cprev=if_litigation
Cprev=then_ahead
Cprev=if_measures
Cprev=when_roll
Cprev=if_triggered
Cprev=if_trouble
Cprev=if_problem
Cprev=if_cease-fire
Cprev=if_radiation
Cprev=likewise_shall
Cprev=if_leap
Cprev=if_dictators
Cprev=if_others
Cprev=if_earnings
Cprev=if_standard
Cprev=when_shots
Cprev=and_foot
Cstring=if_and_when
Cprev=if_rate
Cprev=if_kept
Cprev=if_disappointed
Cprev=and_occurred
Cprev=when_535
Cprev=if_success
Cprev=if_particularly
Cprev=if_all
Cprev=if_grow
Cprev=if_surprising
Cprev=as_long_as_problems
Cprev=if_dive
Cprev=if_code
Cprev=if_sharply
Cprev=if_ownership
Cprev=and_lie
Cprev=as_well_,
Cprev=if_million
Cprev=and_table
Cprev=if_risk
Cprev=if_what
Cprev=and_deeper
Cprev=if_share
Cprev=if_deaths
Cprev=if_board
Cprev=when_junk
Cprev=when_Usually
Cprev=if_risks
Cprev=if_keep
Cprev=if_bid
Cprev=if_rates
Cprev=if_increased
Cprev=if_universities
Cprev=if_dance
Cprev=when_hood
Cprev=when_rough
Cprev=if_stronger
Cprev=after_him
Cprev=when_kind
Cprev=if_months
Cprev=if_Noriega
Cprev=if_longer
Cprev=if_year
Cprev=if_vengeance
Cprev=when_call
Cprev=if_costly
Cprev=if_system
Cprev=if_clients
Cprev=when_sister
Cprev=if_handy
Cprev=when_medicine
Cprev=when_Senate
Cprev=when_cash
Cprev=and_takeover
Cprev=if_childhood
Cprev=if_spending
Cprev=if_and_when_unsure
Cprev=when_schizophrenia
Cprev=then_were
Cprev=if_cuts
Cprev=if_disappear
Cprev=if_offerings
Cprev=as_long_as_system
Cprev=if_protection
Cprev=when_is
Cprev=if_theater
Cprev=when_company
Cprev=if_review
Cprev=since_company
Cprev=when_arbitrage
Cprev=if_cut
Cprev=when_longer
Cprev=if_shares
Cprev=if_stocks
Cprev=when_underreacting
Cprev=when_much
Cprev=if_sour
Cprev=if_place
Cprev=if_prices
Cprev=if_range
Cprev=if_monthly
Cprev=if_Georgia-Pacific
Cprev=when_Benefit
Cprev=until_Jaguar
Cprev=if_maker
Cprev=if_selling
Cprev=when_occurs
Cprev=when_phenomenon
Cprev=if_restriction
Cprev=if_refinance
Cprev=if_;
Cprev=if_better
Cprev=if_:
Cprev=if_salary
Cprev=if_stock
Cprev=when_blocked
Cprev=if_okay
Cprev=later_might
Cprev=if_box
Cprev=if_revolt
Cprev=and_emergency
Cprev=if_greater
Cprev=if_Italians
Cprev=until_remaining
Cprev=until_U.S.
Cprev=when_funds
Cprev=and_error
Cprev=as_long_as_company
Cprev=unless_funds
Cprev=unless_bid
Cprev=if_buy
Cprev=if_ousted
Cprev=if_occur
Cprev=if_Christmas
Cprev=if_building
Cprev=if_again
Cprev=if_acquisition
Cprev=if_know
Cprev=if_agree
Cprev=when_shorter
Cprev=and_if
Cprev=if_smaller
Cprev=if_surprised
Cprev=if_creative
Cprev=if_Resources
Cprev=and_weird
Cprev=when_policy
Cprev=if_complain
Cprev=if_anecdotal
Cprev=so_same
Cprev=if_unsuccessful
Cprev=if_Corp.
Cprev=because_Just
Cprev=when_profit
Cprev=if_erode
Cprev=because_be
Cprev=when_,
Cprev=when_``
Cprev=when_null
Cprev=and_time
Cprev=though_,
Cprev=when_just
Cprev=if_Even
Cprev=if_you
Cprev=still_but
Cprev=if_billion
Cprev=if_them
Cprev=then_--
Cprev=then_``
Cprev=until_determined
Cstring=except
Cprev=if_later
Cprev=if_it
Cprev=still_could
Cprev=if_higher
Cprev=if_less
Cprev=if_state
Cprev=if_happen
Cprev=until_move
Cprev=if_market
Cprev=if_only
Cstring=for_example
Cprev=for_example_,
Cprev=when_bonds
Cprev=once_``
Cprev=when_market
Cprev=once_null
Cprev=when_especially
Cprev=if_do
Cprev=as_long_as_``
Cprev=as_--
Cprev=simultaneously_and
Cstring=simultaneously
Cprev=when_least
Cprev=when_;
Cprev=when_:
Cprev=when_begins
Cprev=if_now
Cstring=lest
PC=WHNP
Cprev=if_%
Cprev=except_,
Cprev=because_documents
Cprev=because_bill
Cprev=because_monitoring
Cprev=because_troubling
Cprev=because_borrow
Cprev=because_computer
Cprev=because_bind
Cprev=as_funds
Cprev=because_relevant
Cprev=because_bullish
Cprev=as_disfavor
Cprev=because_disapproval
Cprev=because_bidders
Cprev=because_back
Cprev=as_ahead
Cprev=because_bills
Cprev=because_priorities
Cprev=because_partly
Cprev=because_parents
Cprev=because_null
Cprev=when_investigations
Cprev=because_refinery
Cprev=because_discouraging
Cprev=because_bonds
Cprev=because_stumbling
Cprev=as_mid-October
Cprev=as_light
Cprev=because_common
Cprev=as_billion
Cprev=because_team
Cprev=because_pact
Cprev=and_tumbled
Cprev=because_Detroit
Cprev=because_1947
Cprev=because_rep
Cprev=when_forces
Cprev=because_office
Cprev=as_jumped
Cprev=because_away
Cprev=because_demand
Cprev=now_that_Bush
Cprev=because_1990
Cprev=because_views
Cprev=because_nettlesome
Cprev=because_qualified
Cprev=because_involved
Cprev=as_ceaselessly
Cprev=because_split
Cprev=because_Partly
Cprev=because_money
Cprev=because_indexing
Cprev=because_her
Cprev=because_penalty
Cprev=since_advances
Cprev=while_sold
Cprev=because_yen
Cprev=because_year
Cprev=when_died
Cprev=because_Perhaps
Cprev=because_lining
Cprev=because_warming
Cprev=because_...
Cprev=as_active
Cprev=because_agencies
Cprev=because_Asia
Cprev=because_victims
Cprev=because_Services
Cprev=because_suffered
Cprev=because_adult
Cprev=because_results
Cprev=as_halt
Cprev=because_strength
Cprev=because_cancer
Cprev=because_candidate
Cprev=as_heavy
Cprev=because_make
Cprev=because_today
Cprev=because_Fox
Cprev=because_committees
Cprev=because_interest
Cprev=because_guarantees
Cprev=as_decade
Cprev=because_closure
Cprev=because_favors
Cprev=because_Primarily
Cprev=because_legislation
Cprev=and_follows
Cprev=because_work
Cprev=because_prospered
Cprev=since_sharply
Cprev=because_arisen
Cprev=as_weeks
Cprev=because_secretary
Cprev=because_December
Cprev=because_surprising
Cprev=because_market
Cprev=if_because
Cprev=because_trading
Cprev=because_1980s
Cprev=as_soared
Cprev=because_requirements
Cprev=because_deal
Cprev=because_behind
Cprev=and_businesses
Cprev=because_charge
Cprev=because_coupons
Cprev=because_terrorism
Cprev=because_seasonally
Cprev=while_profitability
Cprev=because_sick
Cprev=because_Japan
Cprev=because_terminated
Cprev=because_incentive
Cprev=because_middlemen
Cprev=because_deductible
Cprev=in_fact_and
Cprev=as_December
Cprev=because_valuable
Cprev=because_Block
Cprev=as_pride
Cprev=because_prevalent
Cprev=as_likely
Cprev=and_off
Cprev=because_arise
Cprev=because_U.S.
Cprev=because_panels
Cprev=because_rally
Cprev=and_disrupted
Cprev=because_simply
Cprev=and_priced
Cprev=because_position
Cprev=because_increase
Cprev=for_,
Cprev=because_illegal
Cprev=because_frightening
Cprev=because_occurred
Cprev=because_restructuring
Cprev=since_particularly
Cprev=when_holders
Cprev=because_happens
Cprev=because_more
Cprev=as_operations
Cprev=although_because
Cprev=and_smaller
Cprev=because_either
Cprev=because_noticed
Cprev=since_end
Cprev=because_mushroomed
Cprev=because_Corp.
Cprev=because_now
Cprev=as_gradually
Cprev=as_services
Cprev=before_commitments
Cprev=because_sale
Cprev=because_dinosaurs
Cprev=because_butlers
Cprev=because_way
Cprev=because_was
Cprev=because_war
Cprev=because_gold
Cprev=and_ebb
Cprev=because_losses
Cprev=and_plummeted
Cprev=because_Ford
Cprev=because_good
Cprev=because_retire
Cprev=because_appear
Cprev=because_flow
Cprev=because_markets
Cprev=as_faded
Cprev=because_claimants
Cprev=because_retailers
Cprev=because_community
Cprev=because_significant
Cprev=because_debts
Cprev=when_damage
Cprev=because_Lincoln
Cprev=because_challenging
Cprev=because_payments
Cprev=once_relevant
Cprev=because_funds
Cprev=because_packages
Cprev=because_metals
Cprev=as_negative
Cprev=since_regulated
Cprev=because_impact
Cprev=because_Indonesia
Cprev=as_sessions
Cprev=because_off-budget
Cprev=because_early
Cprev=because_people
Cprev=because_shares
Cprev=when_because
Cprev=since_for
Cprev=because_named
Cprev=because_applicable
Cprev=before_turnaround
Cprev=because_only
Cprev=because_benefit
Cprev=because_stock
Cprev=because_stocks
Cprev=because_public
Cprev=since_-LRB-
Cprev=because_afternoon
Cprev=in_the_end_Because
Cprev=because_report
Cprev=because_contract
Cprev=because_fails
Cprev=as_coatings
Cprev=because_network
Cprev=if_collapse
Cprev=because_home
Cprev=because_complex
Cprev=because_takeovers
Cprev=because_operators
Cprev=since_day
Cprev=because_disqualified
Cprev=as_equipment
Cprev=because_analysts
Cprev=because_Jupiter
Cprev=because_Trump
Cprev=because_improved
Cprev=because_end
Cprev=because_technologies
Cprev=as_gains
Cprev=since_especially
Cprev=and_easier
Cprev=because_relieved
Cprev=because_modest
Cprev=because_liquidate
Cprev=as_crumbling
Cprev=because_hampered
Cprev=because_exist
Cprev=because_values
Cprev=because_backfire
Cprev=because_time
Cprev=as_plummet
Cprev=because_12
Cprev=because_32
Cprev=because_30
Cprev=because_laws
Cprev=because_brand
Cprev=when_attractive
Cprev=because_unfit
Cprev=because_outstanding
Cprev=because_program
Cprev=because_largely
Cprev=because_downturn
Cprev=as_differ
Cprev=because_involvement
Cprev=because_analogy
Cprev=because_fast
Cprev=because_makers
Cprev=because_heavy
Cprev=because_Mips
Cprev=because_reorganization
Cprev=as_uncertain
Cprev=as_dramatically
Cprev=because_acrimonious
Cprev=because_ratings
Cprev=as_surged
Cprev=because_deals
Cprev=because_surprised
Cprev=because_pigment
Cprev=because_Street
Cprev=if_accountable
Cprev=since_impressive
Cprev=because_crew
Cprev=because_'d
Cprev=because_undertaken
Cprev=after_long
Cprev=because_combined
Cprev=because_'s
Cprev=as_rallied
Cprev=because_tight
Cprev=because_criticism
Cprev=because_indicator
Cprev=because_overcapacity
Cprev=because_system
Cprev=because_financing
Cprev=because_postponement
Cprev=because_inertia
Cprev=because_Pisa
Cprev=because_million
Cprev=because_firm
LSC=JJR
Cprev=because_misleading
Cprev=because_share
Cprev=when_contract
Cprev=because_prices
Cprev=and_freedom
Cprev=since_disposable
Cprev=because_fair
Cprev=because_assess
Cprev=because_mad
Cprev=because_recently
Cprev=because_risks
Cprev=because_Cathay
Cprev=because_succeed
Cprev=because_trends
Cprev=because_LBO
Cprev=because_use
Cprev=because_Ltd.
Cprev=because_hurt
Cprev=because_problem
Cprev=because_grow
Cprev=because_resignation
Cprev=because_academy
Cprev=because_series
Cprev=as_instantly
Cprev=because_apparently
Cprev=because_proceedings
Cprev=now_that_``
Cprev=now_that_bearish
Cprev=because_immediately
Cprev=because_rate
Cprev=when_gloom
Cprev=because_dilemma
Cprev=as_trends
Cprev=as_debt
Cprev=as_ladder
Cprev=when_%
Cprev=because_company
Cprev=because_that
Cprev=because_slow
Cprev=because_up
Cprev=because_us
Cprev=because_earnings
Cprev=as_safety
Cprev=because_stake
Cprev=because_Airlines
Cprev=because_heightened
Cprev=because_watched
Cprev=because_leaving
Cprev=because_restrictions
Cprev=because_Escorts
Cprev=because_crucial
Cprev=because_deductions
Cprev=because_upset
Cprev=because_alliance
Cprev=since_plan
Cprev=because_outraged
Cprev=because_law
Cprev=because_night
Cprev=as_manufacturers
Cprev=because_China
Cprev=because_points
Cprev=as_mixed
Cprev=because_plan
Cprev=because_sense
Cprev=and_fled
Cprev=because_companies
Cprev=as_AG
Cprev=because_capsules
Cprev=because_much
Cprev=because_sales
Cprev=as_decline
Cprev=as_proliferate
Cprev=because_here
Cprev=when_bristle
Cprev=because_entirety
Cprev=as_higher
Cprev=because_list
Cprev=because_``
Cprev=as_Monday
Cprev=because_issue
Cprev=because_index
Cprev=because_yesterday
Cprev=insofar_as_null
Cprev=because_distinction
Cprev=because_complicated
Cprev=because_economy
Cprev=once_For
Cprev=because_security
Cprev=because_assistant
Cprev=because_job
Cprev=because_agreement
Cprev=because_on
Cprev=because_shoppers
Cprev=because_irresponsibly
Cprev=because_superior
Cprev=because_attention
Cprev=because_acquistion
Cprev=because_is
Cprev=because_in
Cstring=insofar_as
Cprev=because_them
Cprev=as_expectations
Cprev=as_profit
Cprev=when_results
Cprev=and_liquidity
Cprev=as_Insofar
Cprev=because_rejected
Cprev=because_bid
Cprev=and_needed
Cprev=because_combination
Cprev=because_upheld
Cprev=because_coin
Cprev=because_profit-taking
Cprev=because_-RCB-
Cprev=as_more
Cprev=because_average
Cprev=and_program
Cprev=since_Israel
Cprev=as_wildly
Cprev=until_products
Cprev=as_ally
Cprev=because_reinsurance
Cprev=because_permitted
Cprev=when_particularly
Cprev=because_executed
Cprev=because_none
Cprev=because_epidemic
Cprev=because_traders
Cprev=because_orders
Cprev=because_employment
Cprev=because_undeveloped
Cprev=since_difficult
Cprev=now_that_null
Cprev=as_especially
Cprev=because_not
Cprev=because_mainly
Cprev=as_null
Cprev=because_it
CPOS=S
Cprev=because_further
Cprev=because_particularly
Cprev=because_''
Cprev=because_credibility
Cprev=since_''
Cprev=as_yesterday
Cprev=and_lower
Cprev=as_lower
Cprev=after_shortly
Cprev=after_came
Cprev=when_injured
Cprev=as_down
Cprev=as_months
Cprev=as_summer
Cprev=before_money
Cprev=as_that
Cprev=as_value
Cprev=as_come
Cprev=as_sales
Cprev=when_up
RSC=VB
Cprev=when_so
Cprev=as_years
Cprev=as_slightly
Cprev=as_week
Cprev=and_weak
Cprev=as_particularly
Cprev=as_morning
Cprev=as_``
Cprev=because_proposal
PC=null
Cprev=because_investors
Cprev=because_just
Cprev=while_return
Cprev=so_stocks
Cprev=so_that_summit
Cprev=so_...
Cprev=and_created
Cprev=and_anti-intellectualism
Cprev=so_problems
Cprev=until_trades
Cprev=thus_have
Cprev=so_computers
Cprev=so_concessions
Cprev=when_disservice
Cprev=when_expect
Cprev=thus_case
Cprev=thus_values
Cstring=accordingly
Cprev=as_a_result_born
Cprev=thus_gene
Cprev=if_benefit
Cprev=therefore_was
Cprev=so_that_bonds
Cprev=so_that_career
Cprev=after_buy-out
Cstring=consequently
Cprev=as_a_result_``
Cprev=so_Airways
Cprev=thereby_are
Cprev=so_that_--
Cprev=thereby_and
Cprev=if_salmonella
Cprev=thereby_will
Cprev=as_a_result_loss
Cstring=hence
Cprev=so_dealers
Cprev=so_measures
Cprev=and_drug
Cprev=and_Series
Cprev=consequently_Marinaro
Cprev=and_Europe
Cprev=and_decline
Cprev=therefore_them
Cprev=therefore_Drexel
Cprev=as_a_result_decline
Cprev=so_that_data
Cprev=before_So
Cprev=thus_They
Cprev=so_characters
Cprev=thus_''
Cprev=if_So
Cprev=so_grant
Cprev=so_time
Cprev=as_a_result_Largely
Cprev=so_money
Cprev=thus_null
Cprev=so_that_securities
Cprev=so_nearby
Cprev=when_steps
Cprev=consequently_,
Cprev=so_that_on
Cprev=so_that_bill
Cprev=thus_``
Cprev=before_twice
Cprev=so_water
Cprev=therefore_null
Cprev=so_that_complaints
Cprev=so_villages
Cprev=while_year
Cprev=so_needs
Cprev=hence_null
Cprev=thus_plan
Cprev=so_lower
Cprev=and_views
Cprev=unless_likely
Cprev=so_commentary
Cprev=thus_Aeroflot
Cprev=so_that_shopkeepers
Cprev=so_'
Cprev=therefore_-LRB-
Cprev=so_notified
Cprev=when_in
Cprev=so_worried
Cprev=accordingly_presentation
Cprev=so_that_things
Cprev=therefore_,
Cprev=when_roots
Cprev=so_way
Cprev=accordingly_null
Cprev=so_that_plants
Cprev=so_revised
Cprev=thus_has
Cprev=after_Soviets
Cprev=therefore_which
Cprev=so_subordinates
Cprev=when_So
Cprev=later_off
Cprev=thus_Paul
Cprev=as_soon_as_just
Cprev=when_listened
Cprev=consequently_standing
Cprev=then_possible
Cprev=so_program
Cprev=so_Committee
Cprev=so_system
Cprev=and_it
Cprev=so_informed
Cprev=so_science
Cprev=consequently_null
RSC=WHNP
Cprev=after_even
LSC=VBN
Cprev=so_that_enough
Cprev=so_''
Cprev=and_done
Cprev=instead_agreed
Cprev=nevertheless_they
Cprev=after_reported
Cprev=nonetheless_''
Cprev=still_was
Cprev=if_practices
Cprev=although_occurred
Cprev=also_rescue
Cprev=or_sharply
Cprev=though_now
Cprev=still_nomination
Cprev=though_far
Cprev=later_saying
Cprev=if_broke
Cprev=as_sharpness
Cprev=unless_But
Cprev=although_declined
Cprev=but_substitutes
Cprev=nonetheless_but
Cprev=and_slightly
Cprev=later_benefits
Cprev=while_slashed
Cprev=also_experiments
Cprev=and_Dinkins
Cprev=still_I
Cprev=nonetheless_,
Cprev=although_year
Cprev=yet_``
Cprev=also_development
Cprev=still_trip
Cprev=later_bonds
Cprev=because_small
Cprev=since_avoided
Cprev=also_attention
Cprev=and_liquidated
Cprev=and_field
Cprev=but_-LRB-
Cprev=and_number
Cprev=regardless_,
Cprev=and_then
Cprev=nonetheless_deteriorate
Cprev=when_lottery
Cprev=much_as_As
Cprev=when_happen
Cprev=but_delay
Cprev=as_soon_as_But
Cprev=since_have
Cprev=while_virus
Cprev=and_differently
Cprev=since_%
Cprev=but_payment
Cprev=while_-LRB-
Cprev=nonetheless_consummated
Cprev=in_the_end_,
Cprev=nevertheless_,
Cprev=unless_courts
Cprev=if_salvaged
Cprev=until_boom
Cprev=while_doomsayers
Cprev=if_evaporate
Cprev=since_certain
Cprev=also_ad
Cprev=still_observers
Cprev=unless_taxes
Cprev=before_stay
Cprev=unless_backfire
Cstring=regardless
Cprev=and_insufficient
Cprev=because_burden
Cprev=after_securities
Cprev=once_B.A.T
Cprev=because_liability
Cprev=before_July
Cprev=because_key
Cprev=regardless_null
Cprev=if_nothing
Cprev=before_convincing
Cprev=also_leadership
Cprev=still_Trelleborg
Cprev=still_Even
Cprev=now_that_,
Cprev=as_if_issues
Cprev=until_one
Cprev=because_diminish
Cprev=though_sword
Cprev=and_meager
Cprev=while_makes
Cprev=and_knight
Cprev=still_public
Cprev=nonetheless_company
Cprev=while_net
Cprev=because_order
Cprev=before_credit
Cprev=if_as
Cstring=as_if
Cprev=before_even
Cprev=as_even
Cprev=as_if_,
Cprev=if_As
Cprev=as_if_null
Cprev=or_--
RSC=UCP
Cprev=although_``
Cprev=but_...
Cprev=still_is
LSC=NNS
Cprev=after_But
Cprev=although_But
Cprev=in_the_end_But
Cprev=though_-LRB-
Cprev=still_must
Cprev=on_the_other_hand_,
Cprev=while_--
Cprev=though_Even
Cprev=still_were
Cprev=but_;
Cstring=much_as
Cprev=as_much
Cprev=rather_null
Cprev=after_only
Cprev=while_``
Cprev=while_null
Cprev=however_null
Cstring=nevertheless
Cprev=if_But
Cprev=nonetheless_null
Cprev=nevertheless_null
Cprev=although_''
Cprev=though_--
Cprev=because_But
Cstring=nonetheless
Cprev=though_null
Cprev=when_But
Cprev=but_''
Cprev=although_null
Cprev=yet_,
Cprev=after_Medical
Cprev=after_September
Cprev=after_day
Cprev=previously_had
Cprev=still_,
Cprev=after_immediately
Cprev=since_million
Cprev=as_Even
Cprev=because_out
Cprev=when_well
Cprev=when_problems
Cprev=when_issue
Cprev=before_shortly
Cprev=finally_before
Cprev=till_him
Cprev=before_assets
Cprev=before_books
Cprev=until_happen
Cprev=before_%
Cprev=before_section
Cprev=before_bid
Cprev=before_longer
Cprev=next_null
Cprev=then_agreed
Cprev=then_Germans
Cprev=until_strong
Cprev=in_turn_has
Cprev=before_poverty
Cprev=before_training
Cprev=before_`
Cprev=before_1970s
Cprev=before_signal
Cprev=later_distributed
Cprev=before_press
Cprev=in_turn_displaced
Cprev=then_maker
Cprev=in_turn_failures
CPOS=VBD
Cprev=before_possible
Cprev=thereafter_rate
Cprev=before_division
Cprev=until_plan
Cprev=as_cuts
Cprev=then_who
Cprev=or_day
Cprev=before_needed
Cprev=until_nuance
Cprev=before_session
Cprev=before_shares
Cprev=before_weeks
Cprev=then_trust
Cprev=later_said
Cprev=before_quickly
Cprev=until_comment
Cprev=until_wait
Cprev=before_''
Cprev=until_concerned
Cprev=then_agency
Cprev=before_Lebanon
Cprev=before_Belfast
Cprev=until_terms
Cprev=before_and
Cprev=until_know
Cprev=before_runs
Cprev=until_held
Cprev=as_Then
Cprev=before_-RRB-
Cprev=until_facility
Cprev=before_trading
Cprev=as_photograph
Cprev=until_daily
Cprev=until_Wait
Cprev=until_purchases
Cprev=until_null
Cprev=thereafter_null
Cprev=later_``
Cprev=before_orders
CPOS=PRP
Cprev=before_harmony
Cprev=until_stay
Cprev=before_investigation
Cprev=before_London
Cprev=before_his
Cprev=ultimately_Sperry
Cprev=then_could
Cprev=until_yelling
Cprev=later_Citicorp
Cprev=before_unit
Cprev=then_people
Cprev=before_restructured
Cprev=before_range
Cprev=before_loans
Cprev=before_available
Cprev=before_23
Cprev=until_settled
Cprev=until_continue
Cprev=until_years
Cprev=before_came
Cprev=when_influence
Cprev=afterwards_executives
Cprev=afterwards_null
Cprev=finally_Johnson
Cprev=in_turn_who
Cprev=then_they
Cprev=before_level
Cprev=before_margins
Cprev=later_bid
Cprev=later_says
Cprev=before_pence
Cprev=later_Ingersoll
Cprev=later_were
Cprev=ultimately_will
Cprev=until_1969
Cprev=before_equipment
Cprev=until_shelf
Cprev=until_investors
Cprev=later_deadline
Cprev=before_closed
Cprev=until_consequences
Cprev=then_;
Cprev=before_stock
Cprev=until_delayed
Cprev=after_Association
Cprev=afterwards_slabs
Cprev=ultimately_,
Cprev=before_minutes
Cprev=until_final
Cprev=before_released
Cprev=before_decide
Cprev=until_continued
Cprev=before_over
Cprev=later_government
Cprev=later_up
Cprev=and_resolved
Cprev=until_anywhere
Cprev=until_sponsors
Cprev=until_stop
Cprev=till_up
Cprev=before_offices
Cprev=before_place
Cprev=before_decisions
Cprev=then_buying
Cprev=later_company
Cprev=later_null
Cprev=before_lawsuits
Cprev=finally_UAL
Cprev=until_futures
Cprev=before_her
Cprev=before_decade
Cprev=because_planes
Cprev=until_work
Cprev=before_South
Cprev=before_enacted
Cprev=before_parents
Cprev=before_parent
Cprev=before_had
Cprev=later_introduced
Cprev=before_up
Cprev=before_currency
Cprev=before_tv
Cprev=then_which
Cprev=before_week
Cprev=until_response
Cprev=and_investor
Cprev=later_,
Cprev=before_trespass
Cprev=later_remarked
Cprev=before_me
Cstring=till
Cprev=then_antibody
Cprev=then_Lorin
Cprev=until_zoology
Cprev=and_reviewed
Cprev=before_repair
Cprev=until_decline
Cprev=before_effectiveness
Cprev=afterwards_saucers
Cprev=ultimately_He
Cprev=finally_and
Cprev=then_He
Cprev=then_are
Cprev=later_did
Cprev=then_It
Cprev=until_resume
Cprev=and_completed
Cprev=before_points
Cprev=before_resolved
RSC=CD
Cprev=as_bit
Cprev=before_1980
Cprev=finally_We
Cprev=once_level
Cprev=thereafter_beginning
Cprev=then_Masson
Cprev=then_properties
Cprev=and_benefits
Cprev=later_companies
Cprev=before_Shortly
Cprev=until_deduction
Cprev=before_bill
Cprev=later_sought
Cprev=before_Monday
Cprev=before_Lag
Cprev=before_1\/4
Cprev=until_auction
Cprev=before_Co.
Cprev=before_Even
Cprev=before_profits
Cprev=before_leave
Cprev=or_emerges
Cprev=otherwise_might
Cprev=until_only
Cprev=then_is
Cprev=before_long
Cprev=before_market
Cprev=after_until
Cprev=later_reinstated
Cprev=before_information
Cprev=before_feet
Cprev=later_then
Cprev=until_estimated
Cprev=until_zero
Cprev=then_They
Cprev=later_veto
Cprev=until_company
Cprev=until_booming
Cprev=then_team
Cprev=then_to
Cprev=later_He
Cprev=before_was
Cprev=before_gentle
Cprev=until_plans
Cprev=then_can
Cprev=before_votes
Cprev=until_leave
Cprev=then_departments
Cprev=before_considering
Cprev=later_Tinker
Cprev=before_day
PC=QP
Cprev=before_pennant
Cprev=until_Contras
Cprev=ultimately_and
Cprev=before_Pemex
Cprev=before_proof
Cprev=before_financing
Cprev=until_handstands
Cprev=until_home
Cprev=until_media
Cprev=until_operations
Cprev=thereafter_Shortly
Cprev=before_prison
Cprev=before_Tana
Cprev=before_cleaned
Cprev=later_bought
Cprev=before_station
Cprev=then_two
Cstring=afterwards
Cprev=next_What
Cprev=because_troubled
Cprev=until_stopped
Cprev=until_``
Cprev=before_UAL
Cprev=until_taxes
Cprev=then_buyer
Cprev=before_desecration
Cprev=until_assets
Cprev=then_Sears
Cprev=until_least
Cprev=before_higher
Cprev=after_executives
Cprev=later_payment
Cprev=still_Fossett
Cprev=then_gains
Cprev=then_visitors
Cprev=before_decades
Cprev=until_count
Cprev=later_interest
Cprev=before_house
Cprev=before_industry
Cprev=before_laugh
Cprev=before_someone
Cprev=thereafter_must
Cprev=until_or
Cprev=next_Vogelstein
Cprev=before_two
Cprev=before_bandwagon
Cprev=later_learn
Cprev=before_3\/4
Cprev=until_trucks
Cprev=until_system
Cprev=then_scientists
Cprev=later_replaced
Cprev=before_rules
Cprev=before_order
Cprev=before_sell
Cprev=finally_system
Cprev=before_times
Cprev=until_attitudes
Cprev=before_report
Cprev=before_drop
Cprev=as_if_down
Cprev=ultimately_Eastern
Cprev=until_sidelines
Cprev=before_that
Cprev=ultimately_null
LSC=VBZ
Cstring=otherwise
Cprev=then_was
Cprev=before_but
Cprev=later_it
Cstring=thereafter
Cprev=later_rise
Cprev=later_was
Cprev=until_board
Cprev=thereafter_shortly
Cprev=then_but
Cprev=later_he
Cprev=before_``
Cprev=then_By
Cprev=after_back
Cprev=by_then_null
Cprev=before_null
Cprev=since_Ever
Cprev=then_said
Cprev=before_time
Cprev=later_and
Cprev=then_will
LSC=PRP
Cprev=in_the_end_``
Cprev=as_if_proceeds
Cprev=as_if_actors
Cprev=as_if_behave
LSC=VBG
Cprev=as_if_penalty
Cprev=as_if_shivering
Cprev=when_found
Cprev=as_if_policy
Cprev=unless_stopped
Cprev=otherwise_n't
Cprev=or_1988
Cprev=or_``
Cprev=or_injured
Cprev=unless_workers
Cprev=or_competitors
Cprev=or_it
Cprev=alternatively_,
Cprev=except_dealer
Cprev=unless_years
Cprev=while_company
Cprev=when_grow
Cprev=because_filled
Cprev=unless_moves
Cprev=or_Drexel
Cprev=unless_justified
Cprev=or_close
Cprev=unless_reconciliation
Cprev=unless_said
Cprev=unless_Drabinsky
Cprev=and_restaurant
Cprev=unless_rules
Cprev=unless_2010
Cprev=unless_stores
Cprev=unless_effectively
Cprev=unless_changed
Cprev=or_Somalia
Cstring=as_an_alternative
Cprev=unless_enter
Cprev=when_except
Cprev=otherwise_``
Cprev=and_magazine
Cprev=if_returned
Cprev=when_license
Cprev=or_spread
Cprev=unless_out
Cprev=or_paid
Cprev=otherwise_;
Cprev=unless_much
Cprev=as_long_as_basis
Cprev=or_concern
Cprev=otherwise_or
Cstring=alternatively
Cprev=otherwise_will
Cprev=unless_restricted
Cprev=alternatively_null
Cprev=unless_restored
Cprev=unless_else
Cprev=or_closed
Cprev=and_buy
Cprev=unless_anybody
Cprev=unless_that
Cprev=when_or
Cstring=else
Cprev=unless_unlikely
Cprev=unless_clients
Cprev=until_just
Cprev=unless_offer
Cprev=or_surface
Cprev=besides_do
Cprev=because_or
Cprev=unless_store
Cprev=unless_auctions
Cprev=unless_bill
Cprev=or_;
Cprev=or_'
Cprev=or_expired
Cprev=else_,
Cprev=unless_automatically
Cprev=unless_null
Cprev=if_discarded
Cprev=when_modest
Cprev=unless_attack
Cprev=or_approval
Cprev=or_time
Cprev=as_an_alternative_null
Cprev=unless_--
CPOS=CONJP
Cprev=unless_them
Cprev=otherwise_would
Cprev=or_null
Cprev=instead_null
Cprev=instead_but
Cprev=before_received
Cprev=otherwise_null
Cprev=as_faltered
Cprev=in_contrast_,
Cprev=on_the_contrary_``
Cprev=unless_meaningless
Cprev=if_straitjacket
Cprev=but_million
Cprev=while_worth
CPOS=NNS
Cprev=though_time
Cprev=as_regrets
Cprev=before_laid
Cprev=but_market
Cprev=ultimately_could
Cprev=but_plan
Cprev=or_is
Cprev=by_contrast_,
Cprev=as_pared
Cprev=by_contrast_;
Cprev=still_He
Cprev=while_break
Cprev=while_tickets
Cprev=as_recover
Cprev=because_intensify
Cstring=conversely
Cprev=meanwhile_Rep
Cprev=but_that
Cprev=because_all
Cprev=while_programs
Cprev=also_women
Cprev=so_that_publicly
Cprev=as_fell
Cprev=since_sovereignty
Cprev=as_long_as_problem
Cprev=when_money
Cprev=and_mixed
Cprev=yet_graphics
Cprev=or_machines
Cprev=as_prices
Cprev=if_company
Cprev=still_we
Cprev=but_leaks
Cprev=and_stable
Cprev=and_issue
Cprev=meanwhile_But
Cprev=once_recovered
Cprev=as_long_as_cares
Cprev=ultimately_producers
Cprev=unless_auction
Cprev=and_open
Cprev=in_fact_have
Cprev=if_revenue
Cprev=as_rigidity
Cprev=also_combination
Cprev=and_somewhat
Cprev=still_he
Cprev=but_heard
Cprev=still_officials
Cprev=nor_admitting
Cprev=and_earthquake
Cprev=while_slightly
Cprev=while_damage
Cprev=because_long
Cprev=while_decision
Cprev=until_arrive
Cprev=but_headquarters
Cprev=but_identify
Cprev=until_conclusion
Cprev=still_stuff
Cprev=while_packages
Cprev=in_contrast_null
Cprev=after_interest
Cprev=as_session
Cprev=before_scrapped
Cprev=then_you
Cprev=later_stocks
Cprev=because_drumbeating
Cprev=but_estimate
Cprev=while_slowing
Cprev=once_time
Cprev=because_performed
Cprev=because_Europe
Cprev=because_preamble
Cprev=also_'re
Cprev=but_later
Cprev=nonetheless_was
Cprev=but_distinctive
Cprev=and_truthful
Cprev=when_zip
Cprev=but_billion
Cprev=while_flown
Cprev=later_so
Cprev=if_exposure
Cprev=when_reduction
Cprev=when_objected
Cprev=if_ballooning
Cprev=as_skeptical
Cprev=because_franchises
Cprev=unless_more
Cprev=but_Army
Cprev=also_Rudman
Cprev=and_holds
Cprev=and_here
Cprev=once_data
Cprev=until_threatened
Cprev=also_beta
Cprev=but_company
Cprev=also_manpower
Cprev=when_Sutcliffe
Cprev=until_ground
Cprev=since_improved
Cprev=but_proposal
Cprev=before_accrued
Cprev=instead_groups
Cprev=and_cautious
Cprev=while_times
Cprev=by_comparison_-LRB-
Cprev=as_significantly
Cprev=because_role
Cprev=until_remain
Cprev=but_immediately
Cprev=overall_but
Cprev=nonetheless_But
Cprev=as_soon_as_cuts
Cprev=still_may
Cprev=but_complaints
Cprev=still_will
Cprev=still_'s
CPOS=ADJP
Cprev=while_art
Cprev=if_ironic
Cprev=but_rock
Cprev=because_holders
Cprev=because_important
Cprev=while_name
Cprev=thereafter_%
Cprev=as_confusion
Cprev=also_city
Cprev=but_harm
Cprev=but_%
Cprev=as_slackened
Cprev=once_But
Cprev=until_million
Cprev=as_long_as_only
Cprev=when_fizzled
Cprev=before_records
Cprev=instead_issues
Cprev=if_week
Cprev=also_U.S.
Cprev=and_dice
Cprev=while_program
Cprev=as_smiling
Cprev=and_industries
Cprev=and_deteriorated
Cprev=when_discovered
Cprev=if_delays
Cprev=still_early
Cprev=also_Krenz
Cprev=when_Four
Cprev=when_nice
Cprev=after_bill
Cprev=when_hoped
Cprev=still_are
Cprev=until_funds
Cprev=and_coming
Cprev=and_cart
Cprev=if_food
Cprev=and_trust
Cprev=because_justified
Cprev=because_questions
Cprev=but_Hollywood
Cprev=if_veto
Cprev=but_case
Cprev=but_option
Cprev=but_undeveloped
Cprev=if_Yet
Cstring=whereas
Cprev=when_structured
Cprev=although_Yet
Cprev=still_and
Cprev=and_pounds
Cprev=and_large
Cprev=but_business
Cprev=but_toccata
Cprev=if_waived
Cprev=later_dollar
Cprev=as_but
Cprev=and_level
Cprev=although_offer
Cprev=when_liquid
Cprev=as_quarters
Cprev=and_frequency
Cprev=when_reacts
Cprev=while_contracting
Cprev=and_stabilized
Cprev=and_coupons
Cprev=and_mistakes
Cprev=though_all
Cprev=but_computer
Cprev=if_B.A.T
Cprev=unless_delayed
Cprev=when_blase
Cprev=still_prices
Cprev=while_music
Cprev=also_'d
Cprev=now_that_But
Cprev=if_trial
Cprev=if_play
Cprev=and_regulations
Cprev=while_July
Cprev=but_November
Cprev=nevertheless_is
Cprev=unless_exports
Cprev=nevertheless_it
Cprev=while_down
Cprev=if_directors
Cprev=though_''
Cprev=because_flawed
Cprev=until_postponed
Cprev=nonetheless_Baker
Cprev=also_aggregates
Cprev=and_weakest
Cprev=whereas_,
Cprev=but_of
Cprev=and_children
Cprev=instead_rise
Cprev=as_energized
Cprev=on_the_contrary_null
Cprev=still_anti-abortionists
Cprev=while_1982-84
Cprev=thereafter_output
LSC=RBR
Cprev=conversely_null
Cprev=if_shocked
Cprev=while_-RRB-
Cprev=on_the_other_hand_``
Cprev=since_But
Cprev=and_two
Cprev=nor_;
Cprev=before_administrators
Cprev=when_stuff
Cprev=then_he
Cprev=because_abroad
Cprev=later_prices
Cprev=as_waned
Cprev=if_discount
Cprev=by_contrast_null
Cprev=while_cells
Cprev=if_assets
Cstring=on_the_contrary
Cprev=because_trouble
Cprev=while_yesterday
Cprev=so_loud
Cprev=while_unchanged
Cprev=yet_model
Cprev=until_service
Cprev=also_Superfund
Cprev=as_firmed
Cprev=before_lower
Cprev=by_comparison_null
Cprev=but_disclosed
Cprev=nonetheless_is
Cprev=but_damage
Cprev=so_that_length
Cprev=while_capital
Cprev=although_yen
Cprev=and_group
Cprev=instead_''
Cprev=before_Chicago
Cprev=because_needed
Cprev=if_soon
Cprev=by_comparison_,
Cprev=although_case
Cprev=and_games
Cprev=and_Appeals
Cprev=instead_rose
Cprev=yet_1960s
LSC=VBP
Cprev=also_fibers
Cprev=if_through
Cstring=by_contrast
Cprev=whereas_null
Cprev=earlier_who
Cprev=unless_bikes
Cprev=as_created
Cprev=before_industries
Cprev=instead_survived
Cprev=before_plan
Cprev=because_pulled
Cprev=if_realized
Cprev=nonetheless_Bebear
Cprev=after_unchanged
Cprev=after_half
Cprev=when_group
Cprev=still_rules
Cprev=except_offer
Cprev=or_sent
Cprev=because_agenda
Cprev=and_Westmoreland
Cprev=but_10
Cprev=since_made
Cprev=while_bonds
Cprev=while_Street
Cprev=as_me
Cprev=also_individuals
Cprev=while_up
Cprev=but_routes
Cprev=still_There
Cprev=and_jumped
Cprev=if_but
Cprev=nevertheless_traders
Cprev=before_settled
Cprev=after_8
Cprev=but_neutrons
Cprev=because_Korean
Cprev=while_plan
Cprev=but_much
Cstring=in_contrast
Cprev=but_airs
Cprev=for_paying
Cprev=in_fact_did
Cprev=but_contracts
Cprev=until_was
LSC=-LRB-
Cprev=but_quarter
Cprev=instead_interest
Cprev=if_filing
Cprev=because_Coniston
Cprev=also_refinancing
Cprev=when_--
Cprev=because_corn
Cprev=much_as_,
Cprev=as_though_,
Cprev=after_weeks
Cprev=since_ever
Cprev=previously_null
Cprev=after_that
Cprev=when_over
Cprev=while_quarter
Cprev=after_minutes
Cstring=earlier
Cprev=after_%
Cprev=as_hand
Cprev=as_soon_as_,
Cprev=as_here
Cprev=when_industry
Cprev=as_September
Cprev=when_apparent
Cprev=while_''
Cprev=as_business
Cprev=and_rose
Cprev=while_declines
Cprev=when_soar
Cstring=by_comparison
Cprev=if_change
Cprev=before_But
Cprev=however_``
Cprev=rather_but
Cprev=in_other_words_;
Cprev=in_other_words_,
Cprev=when_back
Cprev=unless_movie
RSC=NNP
Cprev=as_unfolded
Cprev=in_other_words_-LRB-
Cprev=when_better
Cstring=in_sum
Cprev=if_sense
Cprev=in_particular_funds
Cprev=while_costs
Cprev=in_other_words_null
Cprev=specifically_null
Cprev=in_sum_null
Cprev=in_fact_statistics
Cprev=indeed_would
Cstring=in_other_words
Cprev=and_passbook
Cstring=in_short
Cprev=when_than
Cprev=as_though_--
Cprev=because_betas
Cprev=indeed_plan
Cprev=in_short_null
Cprev=as_%
Cprev=in_particular_null
Cprev=for_example_null
Cstring=in_particular
Cprev=when_approved
Cprev=when_control
Cprev=previously_mart
Cprev=after_occurred
Cprev=since_announced
Cprev=when_suffered
Cprev=after_economy
Cprev=and_insolvent
Cprev=after_announcement
Cprev=once_programs
Cprev=after_restructuring
Cprev=once_shares
Cprev=after_time
Cprev=after_charter
Cprev=previously_Trek
Cprev=and_squeeze
Cprev=after_Services
Cprev=after_selling
Cprev=after_buffetting
Cprev=since_facility
Cprev=after_resigned
Cprev=after_changed
Cprev=when_determined
Cprev=since_meal
Cprev=since_had
Cprev=as_soon_as_stock
Cprev=since_years
Cprev=after_recommendations
Cprev=when_alarmed
Cprev=after_unraveled
Cprev=after_hands
Cprev=after_soon
Cprev=after_managers
Cprev=after_271
CPOS=VBG
Cprev=when_uproar
Cprev=once_hesitation
Cprev=after_alliance
Cprev=after_home
Cprev=after_just
Cprev=after_points
Cprev=after_Texas
Cprev=after_bullet
Cprev=after_Brooklyn
Cprev=once_pesticide
Cprev=since_been
Cprev=after_posted
Cprev=when_Ruffo
Cprev=when_evaporate
Cprev=after_Inc.
Cprev=when_salespeople
Cprev=after_Craig
Cprev=when_conduct
Cprev=after_forces
Cstring=when_and_if
Cprev=when_liberal
Cprev=after_established
Cprev=since_seen
Cprev=previously_,
Cprev=once_bid
Cprev=when_news
Cprev=when_meeting
Cprev=when_seizures
Cprev=previously_concern
Cprev=once_Europe
Cprev=since_setbacks
Cprev=once_soil
Cprev=after_reopened
Cprev=after_protection
Cprev=when_automatically
Cprev=previously_He
Cprev=after_losses
Cprev=when_burdensome
Cprev=after_paper
Cprev=after_meeting
Cprev=after_fired
Cprev=after_price
Cprev=previously_They
Cprev=after_request
Cprev=after_share
Cprev=after_362
Cprev=after_shares
Cprev=previously_were
Cprev=after_began
Cprev=after_Ltd.
Cprev=until_all
Cprev=after_gain
Cprev=after_comeback
Cprev=after_reverse
Cprev=until_open
Cprev=after_plan
Cprev=by_then_who
Cprev=after_suit
Cprev=when_comment
Cprev=until_statement
Cprev=when_apart
Cprev=since_times
Cprev=since_Three
Cprev=when_him
Cprev=since_operating
Cprev=after_3\/4
Cprev=before_pregnant
Cprev=when_power
Cprev=since_first
Cprev=after_yesterday
Cprev=when_renewed
Cprev=after_Picop
Cprev=after_faced
Cprev=earlier_He
Cprev=after_sidelined
Cprev=earlier_contracts
Cprev=after_Months
Cprev=when_shares
Cprev=once_investment
Cprev=since_growing
Cprev=after_rate
Cprev=when_tickets
Cprev=since_tripled
Cprev=as_questions
Cprev=after_3\/32
Cprev=earlier_Building
Cprev=once_increase
Cprev=after_prison
Cprev=earlier_An
Cprev=and_for
Cprev=when_run-up
Cprev=as_soon_as_null
Cprev=after_job
Cprev=when_happens
Cprev=once_subscribers
Cprev=after_bad
Cprev=after_bag
Cprev=after_session
Cprev=after_63
Cprev=after_Vila
Cprev=after_April
Cprev=previously_Amcast
Cprev=after_30
Cprev=after_39
Cprev=when_spilled
Cprev=after_20
Cprev=after_29
Cprev=after_pence
Cprev=after_53
Cprev=once_;
Cprev=after_plate
Cprev=after_seen
Cprev=after_measure
Cprev=after_Shortly
Cprev=after_10
Cprev=after_sometimes
Cprev=and_dissolved
Cprev=since_poverty
Cprev=after_--
Cprev=once_funds
Cprev=after_through
Cprev=when_drugs
Cprev=after_Atlanta
Cprev=after_106
Cprev=after_bit
Cprev=after_Moslems
Cprev=since_plateau
Cprev=after_161
Cprev=as_rise
Cprev=after_resilience
Cprev=after_Jaguar
Cprev=after_place
Cprev=after_midafternoon
Cprev=since_music
CPOS=WHADVP
Cprev=since_rocks
Cprev=after_Bozell
Cprev=when_confirmed
Cprev=after_billion
Cprev=earlier_Congress
Cprev=after_out
Cprev=when_interview
Cprev=until_stock
Cprev=after_dealings
Cprev=after_reportedly
Cprev=since_billion
Cprev=after_1970
Cprev=after_1989
Cprev=since_decline
Cprev=after_1981
Cprev=after_1980
Cprev=after_1985
Cprev=earlier_null
Cprev=after_mushrooms
Cprev=after_Senate
Cprev=after_right
Cprev=after_announced
Cprev=after_killed
Cprev=previously_BNL
Cprev=after_operations
Cprev=after_outraged
Cprev=when_price
Cprev=when_plunged
Cprev=after_afternoon
Cprev=after_Even
Cprev=after_1\/4
Cprev=after_Warner
Cprev=after_disclosed
Cprev=previously_Bakes
Cprev=after_earnings
Cprev=after_coming
Cprev=after_made
Cprev=after_1523.22
Cprev=before_since
Cprev=and_waters
Cprev=after_vacant
Cprev=since_value
Cprev=after_...
Cprev=after_trading
Cprev=as_soon_as_charges
Cprev=after_appropriated
Cprev=when_leave
Cprev=after_night
Cprev=after_archive
Cprev=after_tumbled
Cprev=as_month
Cprev=as_soon_as_that
Cprev=after_known
Cprev=when_closed
Cprev=since_once
Cprev=after_company
Cprev=after_lose
Cprev=and_offers
Cprev=after_fell
Cprev=when_Street
Cprev=after_crunch
Cprev=previously_Microsoft
Cprev=after_later
Cprev=after_how
Cprev=because_programs
Cprev=after_fines
Cprev=once_--
Cprev=after_imports
Cprev=after_agencies
Cprev=previously_Merieux
Cprev=previously_retailer
Cprev=after_Soon
Cprev=after_tone
Cprev=after_slowly
Cprev=after_Just
CPOS=JJR
Cprev=when_fate
Cprev=after_filing
Cprev=when_1.5765
Cprev=after_projections
Cprev=after_prostitution
Cprev=after_seven
Cprev=after_-RRB-
Cprev=when_blamed
Cprev=after_campaign
Cprev=after_areas
Cprev=since_Commission
Cprev=after_quickly
Cprev=after_July
Cprev=when_sell
Cprev=after_program
Cprev=and_Friday
Cprev=after_UAL
Cprev=until_mess
Cprev=after_LOW
Cprev=when_chairman
Cprev=after_transaction
Cprev=after_initiated
Cprev=after_hours
Cprev=since_leader
Cprev=after_possibility
Cprev=after_cans
Cprev=after_season
Cprev=since_known
Cprev=after_option
Cprev=after_bikers
Cprev=after_strike
Cprev=as_talks
Cprev=when_doctors
Cprev=after_million
Cprev=when_10,000
Cprev=when_and_if_null
Cprev=and_attitudes
Cprev=when_incurred
Cprev=earlier_which
Cprev=since_Philippines
Cprev=after_gains
Cprev=when_maker
Cprev=when_units
Cprev=after_week
Cprev=after_plummeted
Cprev=since_happened
Cprev=after_declined
Cprev=after_7\/8
Cprev=when_agency
Cprev=and_When
Cprev=once_join
Cprev=since_AZT
Cprev=since_hired
Cprev=after_buying
Cprev=once_positions
Cprev=once_approved
Cprev=when_caused
Cprev=and_exploited
Cprev=when_thwarted
Cprev=when_75
Cprev=after_-LRB-
Cprev=after_quiet
Cprev=after_jelled
Cprev=after_lower
Cprev=after_initially
Cprev=after_spring
Cprev=after_quarter
Cprev=and_trade
Cprev=since_bank
Cprev=previously_was
Cprev=after_Center
Cprev=after_:
Cprev=after_;
Cprev=earlier_companies
Cprev=after_proceed
Cprev=since_change
Cprev=previously_who
Cprev=after_acted
Cprev=after_months
Cprev=as_soon_as_replaced
Cprev=when_sideline
Cprev=when_remain
Cprev=after_Tuesday
Cprev=when_outstanding
Cprev=since_programs
Cprev=after_gold
Cprev=when_screen
Cprev=after_applause
Cprev=after_schedules
Cprev=when_bank
Cprev=when_Just
Cprev=after_funds
Cprev=when_paid
Cprev=after_days
Cprev=as_trading
Cprev=when_began
Cprev=as_came
Cprev=after_government
Cprev=after_business
Cprev=when_through
Cprev=while_car
Cprev=when_Spain
Cprev=while_tee
Cprev=when_waste
Cprev=as_1\/8
Cprev=while_rubble
Cprev=as_made
Cprev=unless_coalition
Cprev=when_evident
Cprev=when_goals
Cprev=when_producers
Cprev=while_settlement
Cprev=when_sellers
Cprev=as_mind
Cprev=while_Force
Cprev=when_word
Cprev=as_bill
Cprev=as_gas
Cprev=when_Even
Cprev=now_that_shaky
Cprev=while_responsibilities
Cprev=as_afoot
Cprev=when_stonewalled
Cprev=when_acquired
Cprev=when_buy
Cprev=when_Wall
Cprev=by_then_which
Cprev=meanwhile_the
Cprev=when_mind
Cprev=as_technology
Cprev=when_forbearance
Cprev=as_off
Cprev=when_down
Cprev=as_contract
Cprev=as_bank
Cprev=as_trades
Cprev=as_mid-1990s
Cprev=when_101
Cprev=as_brow
Cprev=as_marks
Cprev=as_advice
Cprev=as_says
Cprev=when_other
Cprev=as_tailspin
Cprev=as_interested
Cprev=when_remembered
Cprev=when_weeks
Cprev=simultaneously_Almost
Cprev=as_long_as_null
Cprev=and_reddened
Cprev=while_weeks
Cprev=when_Minnesota
Cprev=when_dancers
Cprev=as_91-23
Cprev=as_good
Cprev=while_ideas
Cprev=when_information
Cprev=meanwhile_;
Cprev=when_risk
Cprev=as_war
Cprev=as_coming
Cprev=when_plan
Cprev=as_comes
Cprev=as_dealings
Cprev=when_setback
Cprev=when_tons
Cprev=and_offered
Cprev=as_stagewhispers
Cprev=as_apparent
Cprev=as_exposure
Cprev=when_himself
Cprev=as_unraveled
Cprev=while_Saturday
Cprev=when_lip
Cprev=as_earnings
Cprev=while_ways
Cprev=as_increases
Cprev=as_Exchange
Cprev=as_soon_as_mainframes
Cprev=when_necessity
Cprev=when_exports
Cprev=when_vehicles
Cprev=when_change
Cprev=when_tumor
Cprev=when_pizza
Cprev=as_today
Cprev=and_disappeared
Cprev=as_sweatshirt
Cprev=as_proliferated
Cprev=when_exemptions
Cprev=when_methods
Cprev=as_hear
Cprev=while_promotions
Cprev=as_helplessly
Cprev=when_moments
Cprev=as_strengthening
Cprev=as_levels
Cprev=when_trading
Cprev=as_Budapest
Cprev=as_front
Cprev=as_opportunities
Cprev=as_bonds
Cprev=when_hit
Cprev=while_night
Cprev=as_hiatus
Cprev=because_output
Cprev=while_skiing
Cprev=as_Board
Cprev=when_profligate
Cprev=when_grounds
Cprev=when_declared
Cprev=as_trade
Cprev=while_thoughts
Cprev=when_surfaced
Cprev=when_seriously
Cprev=when_system
Cprev=while_January
Cprev=when_started
Cprev=as_Henderson
Cprev=and_floor
Cprev=when_norms
Cprev=when_developed
Cprev=when_debt
Cprev=while_idle
Cprev=as_thin
Cprev=as_midday
Cprev=while_acquisitions
Cprev=as_masters
Cprev=as_munis
Cprev=when_sidelines
Cprev=as_3\/8
Cprev=when_Europe
Cprev=when_stocks
Cprev=as_Tegucigalpa
Cprev=when_furor
Cprev=while_debt
Cprev=as_closer
Cprev=as_progress
Cprev=as_slip
Cprev=while_assortment
Cprev=as_fizzes
Cprev=as_million
Cprev=as_ride
Cprev=simultaneously_but
Cprev=if_TV
Cprev=now_that_cheap
Cprev=as_impact
Cprev=when_fund
Cprev=as_reports
Cprev=as_her
Cprev=when_confiscated
Cprev=as_year
Cprev=while_falling
Cprev=as_changed
Cprev=while_proceedings
Cprev=when_translations
Cprev=when_house
Cprev=while_outlays
Cprev=as_position
Cprev=when_dividend
Cprev=as_market
Cprev=when_were
Cprev=as_stories
Cprev=when_offerings
Cprev=finally_they
Cprev=when_water
Cprev=when_Caution
Cprev=as_erratically
Cprev=while_industry
Cprev=when_remember
Cprev=when_income
Cprev=as_673
Cprev=when_blocks
Cprev=while_office
Cprev=when_Digital
Cprev=when_assume
Cprev=as_mounted
Cprev=when_thing
Cprev=when_rope
Cprev=then_when
Cprev=as_bandwagon
Cprev=when_comic
Cprev=while_status
Cprev=when_off
Cprev=as_pressure
Cprev=as_hours
Cprev=while_malnourishment
Cprev=when_volatility
Cprev=until_outcome
Cprev=when_Park
Cprev=when_remembering
Cprev=while_own
Cprev=as_bell
Cprev=when_for
Cprev=while_precipices
Cprev=when_Bros.
Cprev=while_exciting
Cprev=as_solemnly
Cprev=when_purse
Cprev=when_face
Cprev=while_learned
Cprev=when_again
Cprev=when_religiously
Cprev=as_erode
Cprev=as_rules
Cprev=and_bonds
Cprev=when_Sometimes
Cprev=when_choice
Cprev=when_inventory
Cprev=as_counseling
Cprev=when_Beach
Cprev=when_library
Cprev=when_Stanford
Cprev=as_block
Cprev=while_independent
Cprev=when_dashed
Cprev=as_suffered
Cprev=while_lots
Cprev=as_soon_as_resigning
Cprev=when_fire
Cprev=as_boost
Cprev=when_old
Cprev=while_possible
Cprev=when_writing
Cprev=when_eliminated
Cprev=when_profits
Cprev=when_Ebensburg
Cprev=when_Medicaid
Cprev=when_sold
Cprev=as_minutes
Cprev=after_efforts
Cprev=when_toaster
Cprev=as_land
Cprev=as_wall
Cprev=as_momentum
Cprev=so_more
Cprev=as_acquisitions
Cprev=as_reduced
Cprev=while_risks
Cprev=when_guy
Cprev=when_trial
Cprev=while_stocks
Cprev=as_intensifying
Cprev=as_occurred
Cprev=while_loan
Cprev=and_dashed
Cprev=while_Even
Cprev=when_deliriously
Cprev=while_drinking
Cprev=as_interest
Cprev=when_software
Cprev=when_U.S.
Cprev=when_came
Cprev=as_list
Cprev=when_delivery
Cprev=while_her
Cprev=when_rises
Cprev=finally_GE
Cprev=while_committed
Cprev=when_care
Cprev=when_judge
Cprev=when_yard
Cprev=when_lines
Cprev=when_Back
Cprev=as_opening
Cprev=as_long_as_,
Cprev=when_haven
Cprev=while_profitable
Cprev=when_markets
Cprev=as_anxiously
Cprev=while_margins
Cprev=when_revenue
Cprev=as_outcry
Cprev=as_countries
Cprev=when_waves
Cprev=while_creditors
Cprev=when_it
Cprev=when_securities
Cprev=while_benefits
Cprev=as_interesting
Cprev=when_border
Cprev=when_Trust
Cprev=when_pinch
Cprev=as_ago
Cprev=while_offering
Cprev=as_861
Cprev=while_streak
Cprev=while_orchestras
Cprev=while_outside
Cprev=while_mud
Cprev=while_area
Cprev=as_judge
Cprev=as_clients
Cprev=while_sings
Cprev=while_moderating
Cprev=when_drug
Cprev=as_squeeze
Cprev=as_expected
Cprev=and_mature
Cprev=as_sidelines
Cprev=when_do
Cprev=as_snowsuit
Cprev=while_even
Cprev=when_did
Cprev=when_table
Cprev=as_-RCB-
Cprev=when_building
Cprev=when_vaguest
Cprev=as_behave
Cprev=as_mutters
Cprev=after_house
Cprev=then_redemption
Cprev=when_words
Cprev=when_recently
Cprev=while_growth
Cprev=when_level
Cprev=when_exposed
Cprev=when_`
Cprev=also_lawyer
Cprev=as_points
Cprev=while_acknowledged
Cprev=when_come
Cprev=when_.
Cprev=as_Europe
Cprev=as_said
Cprev=when_received
Cprev=as_volatility
Cprev=as_bigger
Cprev=as_7\/8
Cprev=as_footing
Cprev=as_amazement
Cprev=as_earlier
Cprev=when_SF
Cprev=as_discrepancies
Cprev=as_Hugo
Cprev=before_refinery
Cprev=while_pilots
Cprev=as_further
Cprev=as_rebounded
Cprev=when_rate
Cprev=when_culture
Cprev=when_use
Cprev=while_planning
Cprev=while_die
Cprev=as_settlements
Cprev=while_Columbia
Cprev=when_happy
Cprev=when_Only
Cprev=as_struggling
Cprev=when_Kate
Cprev=when_pitches
Cprev=as_day
Cprev=while_operate
Cprev=when_decline
Cprev=as_think
Cprev=as_so
Cprev=while_accounts
Cprev=when_programs
Cprev=when_conservative
Cprev=when_artist
Cprev=while_campaign
Cprev=while_bullet
Cprev=while_historicized
Cprev=when_fashion
Cprev=as_soon_as_discipline
Cprev=when_was
Cprev=when_proportions
Cprev=when_not
Cprev=when_dumped
Cprev=while_branch
Cprev=when_'s
Cprev=as_Poland
Cprev=as_pilot
Cprev=as_long_as_concern
Cprev=as_name
Cprev=as_ship
Cprev=when_live
Cprev=when_broadly
Cprev=as_items
Cprev=while_treatment
Cprev=as_tenfold
Cprev=when_Burned
Cprev=when_investors
Cprev=while_lawsuits
Cstring=before_and_after
Cprev=before_and_after_pickup
Cprev=and_before
Cprev=though_unacceptable
Cprev=also_satire
Cprev=if_is
Cprev=before_fiat
Cprev=but_stay
Cprev=after_offered
Cprev=as_clout
Cprev=also_style
Cprev=also_shortages
Cprev=before_morning
Cprev=also_action
Cprev=but_security
Cprev=when_Yet
Cprev=before_go
Cprev=but_devastation
Cprev=lest_restraint
Cprev=if_competitors
Cprev=by_comparison_But
Cprev=and_materialized
Cprev=before_blinked
Cprev=as_government
Cprev=instead_Nissan
Cprev=and_flawed
Cprev=while_quotas
Cprev=also_proposals
Cprev=but_written
Cprev=once_notified
Cprev=as_recently
Cprev=specifically_agency
Cprev=so_response
Cprev=if_help
Cprev=as_soon_as_operator
Cprev=while_position
Cprev=when_damaged
Cprev=if_traduced
Cprev=before_Lincoln
Cprev=now_that_lower
Cprev=and_implantation
Cprev=when_supersafe
Cprev=in_particular_and
Cprev=as_long_as_steel
Cprev=in_particular_,
Cprev=later_will
Cprev=for_instance_''
Cprev=for_example_``
Cprev=because_-RRB-
Cprev=and_losers
Cprev=because_portfolio
Cprev=then_orders
Cprev=for_going
Cprev=when_trigger
Cprev=before_factors
CPOS=VB
Cprev=for_instance_null
Cprev=for_example_--
Cprev=instead_insisting
Cprev=instead_chips
Cprev=instead_trying
Cprev=so_Mexican
Cprev=much_as_as
Cprev=instead_are
Cprev=after_appear
Cprev=rather_is
Cprev=instead_painted
Cprev=instead_relying
Cprev=as_him
Cprev=instead_choosing
Cprev=instead_it
Expansion.Alternative.Chosen
Cprev=so_attacks
Cprev=much_as_so
Cprev=instead_;
Cprev=instead_,
Cprev=instead_moved
Cprev=instead_preferring
Cprev=as_delivery
Cprev=because_but
Cprev=specifically_that
Cprev=instead_devaluation
Cprev=instead_prices
Cprev=except_--
Cprev=except_contract
Cprev=except_null
Cprev=if_delayed
Cprev=otherwise_unfair
Cprev=except_lines
Cprev=when_day
4.628535690217963
5.065743608374205
1.1114550733529485
1.8496837264702346
1.9218775395719152
1.5881218262578762
1.9218775395719152
1.1114550733529485
1.1114550733529485
1.1114550733529485
1.9218775395719152
1.9218775395719152
1.1114550733529485
1.7111862713920278
1.1114550733529485
1.1114550733529485
1.1114550733529485
1.1114550733529485
1.5881218262578762
1.5881218262578762
1.9549009234049899
1.9218775395719152
1.9218775395719152
1.1114550733529485
1.4936016566121488
1.9126351276824671
1.1114550733529485
1.1114550733529485
1.9218775395719145
1.1114550733529485
5.227699146914191
1.1114550733529485
1.1114550733529485
1.5881218262578762
5.293335042814101
1.1114550733529494
1.111455073352948
1.9218775395719152
1.1114550733529485
1.1114550733529485
1.5881218262578762
1.9218775395719152
1.1114550733529485
2.2737791591415526
1.1114550733529485
5.227699146914191
1.1114550733529485
5.227699146914191
1.111455073352948
1.5881218262578762
1.9218775395719152
5.293335042814101
1.1114550733529485
1.7091161406695838
1.7425119310951358
4.628535690217963
1.9218775395719152
1.5881218262578762
1.9218775395719152
1.5881218262578762
2.2221422115606146
1.111455073352948
2.140084819732639
4.671912853337413
1.9126351276824671
1.1114550733529485
5.097132149706017
1.1114550733529485
4.37469002253788
1.9218775395719152
1.9218775395719152
5.293335042814101
1.1114550733529476
1.9218775395719152
1.0972979003029606
1.1114550733529485
1.9218775395719152
1.1114550733529485
1.1114550733529485
1.9218775395719152
1.1114550733529485
1.1114550733529485
1.1114550733529494
1.111455073352948
4.628535690217963
1.9218775395719152
1.1114550733529485
1.5881218262578762
4.628535690217962
1.5881218262578762
1.921877539571915
1.1114550733529485
3.103881553107239
1.1114550733529485
1.111455073352948
1.5881218262578762
1.1114550733529485
1.1114550733529485
4.044921207119782
1.1114550733529476
4.818395320313739
1.1114550733529485
1.111455073352948
1.9218775395719152
1.111455073352948
1.1114550733529485
5.081455818788728
1.5881218262578762
1.9218775395719152
1.9218775395719152
1.921877539571915
1.1114550733529485
1.1114550733529485
1.9218775395719152
1.1114550733529485
4.589388109091554
4.945229856887665
1.1114550733529485
2.209760453126855
1.1114550733529485
1.1114550733529485
1.9218775395719152
1.1114550733529485
1.9218775395719152
1.1114550733529485
1.1114550733529485
1.1114550733529485
1.1114550733529485
1.111455073352948
1.1114550733529485
5.227699146914191
1.1114550733529485
1.9218775395719152
1.1114550733529485
3.507059071329184
1.1114550733529485
1.9126351276824671
1.7088047347441553
1.9218775395719152
1.8209509390111238
1.9218775395719152
1.5881218262578762
4.628535690217963
4.706599523594088
1.9218775395719152
1.5881218262578762
1.1114550733529485
1.9442664429675212
1.1114550733529485
1.9218775395719152
5.293335042814101
1.7111862713920278
2.123795394222987
1.1114550733529485
5.438046747634016
1.750884547792774
1.1114550733529485
1.1114550733529485
2.083985397032259
1.1114550733529485
1.111455073352948
1.9218775395719152
1.1114550733529485
1.9218775395719152
1.9218775395719152
1.5881218262578762
1.1114550733529485
1.9218775395719152
1.1114550733529485
1.9218775395719152
4.628535690217963
3.44439111794597
1.1114550733529485
1.1114550733529485
1.7090959506309689
1.9218775395719152
2.5828193952922187
1.921877539571915
1.5881218262578762
3.8322940427639303
1.111455073352948
1.1114550733529485
4.671912853337413
5.097132149706017
4.848539758442804
1.1114550733529485
1.5881218262578762
1.5881218262578762
1.1114550733529494
1.5881218262578762
1.9218775395719152
4.671912853337413
1.9218775395719152
1.9218775395719152
1.1114550733529485
1.1114550733529485
1.921877539571915
1.9218775395719152
1.1114550733529485
5.293335042814101
1.5881218262578762
4.671912853337413
5.097132149706017
1.7342089885035328
1.1114550733529478
1.1114550733529485
1.1114550733529485
1.1114550733529485
1.111455073352948
1.7091161406695818
1.9218775395719152
1.9218775395719152
2.2737791591415526
1.9218775395719145
1.9218775395719152
1.1114550733529485
1.1114550733529485
1.9218775395719145
2.0391010846792823
1.111455073352948
1.7091161406695818
5.293335042814101
4.017706227087526
1.9218775395719152
1.9218775395719152
1.1114550733529485
1.1114550733529485
1.9218775395719152
1.1114550733529485
1.1114550733529485
2.2737791591415526
1.9218775395719152
4.671912853337413
4.706599523594088
2.55980859587065
1.9218775395719152
1.921877539571915
1.1114550733529485
1.1114550733529485
1.5881218262578762
1.1114550733529485
1.5881218262578762
2.209760453126855
1.5881218262578762
1.1114550733529485
5.293335042814101
4.322645871153572
1.1114550733529485
1.1114550733529485
1.1114550733529485
1.1114550733529485
1.9218775395719152
2.2737791591415526
2.2737791591415526
1.1114550733529485
1.5370960622126504
1.9218775395719152
1.9218775395719152
5.097132149706017
5.065743608374205
1.111455073352948
1.111455073352948
4.917023928301151
1.1114550733529485
2.3041802521570443
1.9236795111422036
1.1114550733529485
1.1114550733529485
1.111455073352948
4.018715455864
4.53464946384319
1.1114550733529485
1.728262859732041
1.1114550733529485
5.438046747634016
5.227699146914191
1.9218775395719152
1.1114550733529494
1.111455073352948
4.63422581400797
1.4795074094358864
1.1114550733529485
1.7725585070353218
2.2737791591415526
3.9308853195695024
1.1114550733529485
1.1114550733529485
1.9218775395719152
1.9218775395719152
1.1114550733529485
5.097132149706017
1.1114550733529485
1.1114550733529485
1.9218775395719152
1.1114550733529485
1.5881218262578762
1.328952713853275
1.728262859732041
1.1114550733529485
1.1114550733529494
5.227699146914191
1.1114550733529485
1.9218775395719152
1.9218775395719152
4.628535690217963
4.628535690217963
1.1114550733529485
3.710475258815138
1.2423293637585635
1.1114550733529485
5.2900421944506135
1.9218775395719152
1.9218775395719152
1.1114550733529485
1.9324434124045053
1.5881218262578762
5.293335042814101
1.0119807076642315
4.873610960797494
1.5881218262578762
1.9218775395719152
2.1186019377119103
4.628535690217963
5.014479415771451
4.63422581400797
3.5569413544999136
1.5881218262578762
1.111455073352948
1.1114550733529485
1.1114550733529485
1.1114550733529485
5.5619002298255085
2.110296733292077
1.1114550733529485
1.709116140669582
1.1114550733529485
1.57943539781977
1.111455073352948
1.1114550733529485
3.8509754310322806
1.111455073352948
1.111455073352948
1.9218775395719152
1.9218775395719152
1.111455073352948
1.111455073352948
1.1114550733529476
1.9218775395719152
1.111455073352948
5.293335042814101
1.9787269119250024
1.9218775395719152
1.111455073352948
1.111455073352948
6.38608801999298
1.111455073352948
1.9218775395719152
2.9937807596439385
1.111455073352948
1.9218775395719152
1.9126351276824671
1.111455073352948
1.111455073352948
1.1114550733529476
1.111455073352948
1.9218775395719152
1.111455073352948
1.111455073352948
1.5881218262578762
1.9218775395719152
1.0119807076642315
4.844272347323558
1.9218775395719152
1.111455073352948
1.111455073352948
1.111455073352948
1.9218775395719152
1.5881218262578762
5.293335042814101
1.111455073352948
1.5881218262578762
5.2900421944506135
2.110296733292077
1.111455073352948
2.6198111862275915
1.9218775395719152
1.111455073352948
1.111455073352948
1.111455073352948
1.111455073352948
1.111455073352948
1.111455073352948
2.2737791591415526
2.4542501695454653
1.5881218262578762
1.328952713853275
1.111455073352948
5.293335042814101
1.9218775395719152
5.2900421944506135
1.111455073352948
1.9218775395719152
5.2900421944506135
1.9218775395719152
1.111455073352948
1.921877539571915
1.7091161406695823
5.293335042814101
5.293335042814101
5.097132149706017
1.111455073352948
3.504702380193311
1.111455073352948
4.628535690217963
1.111455073352948
5.2900421944506135
1.111455073352948
1.111455073352948
1.5881218262578762
5.293335042814101
1.111455073352948
1.9218775395719152
1.111455073352948
1.111455073352948
1.111455073352948
1.9218775395719152
1.1114550733529494
1.111455073352948
1.9218775395719152
1.5881218262578762
1.9218775395719152
1.9218775395719152
1.7091161406695807
1.111455073352948
1.111455073352948
5.227699146914191
1.9218775395719156
1.111455073352948
5.293335042814101
1.9218775395719152
1.9218775395719152
3.500264625152092
4.628535690217963
1.111455073352948
1.111455073352948
1.111455073352948
1.9218775395719152
2.2737791591415526
5.227699146914191
3.179420425667159
1.1114550733529494
1.111455073352948
1.111455073352948
1.111455073352948
4.628535690217963
1.111455073352948
1.9218775395719152
1.709116140669582
1.111455073352948
1.9218775395719152
1.111455073352948
1.9218775395719152
4.671912853337413
2.2737791591415526
1.9218775395719152
1.111455073352948
1.111455073352948
1.7111862713920278
1.111455073352948
5.293335042814101
1.111455073352948
1.111455073352948
1.111455073352948
4.671912853337413
4.671912853337413
1.111455073352948
4.957526888170768
1.9218775395719152
5.227699146914191
1.111455073352948
1.111455073352948
4.671912853337413
6.38608801999298
1.9218775395719152
1.111455073352948
1.9218775395719152
1.111455073352948
1.921877539571915
1.1114550733529494
1.9218775395719152
1.111455073352948
1.5881218262578762
1.9218775395719152
1.9218775395719152
1.111455073352948
1.9218775395719152
1.111455073352948
1.7664932091344472
4.655673510321769
1.5881218262578762
1.7091161406695818
1.1114550733529485
1.111455073352948
1.111455073352948
1.111455073352948
1.111455073352948
1.111455073352948
2.2737791591415526
1.111455073352948
1.111455073352948
1.111455073352948
1.111455073352948
1.9218775395719152
1.9218775395719152
1.7464884870293798
1.111455073352948
1.111455073352948
1.111455073352948
1.9126351276824671
4.628535690217963
1.9218775395719152
1.5881218262578762
4.628535690217963
1.9218775395719152
1.1114550733529482
1.111455073352948
1.9218775395719152
3.1140034922898696
2.9370533705905486
1.9218775395719152
1.111455073352948
1.9218775395719152
1.111455073352948
3.564708940607952
3.819523448773586
1.545093997111869
1.921877539571915
1.5881218262578762
1.111455073352948
1.111455073352948
1.111455073352948
1.5881218262578762
1.111455073352948
1.111455073352948
1.111455073352948
2.22346838357551
1.7271896762272614
1.353359130553139
1.111455073352948
1.111455073352948
1.111455073352948
1.111455073352948
5.5619002298255085
1.111455073352948
1.4936016566121488
1.9236795111422027
1.9218775395719152
1.5881218262578762
1.9218775395719152
1.111455073352948
1.111455073352948
1.9218775395719152
1.111455073352948
1.111455073352948
1.111455073352948
1.111455073352948
3.2687357181600256
4.484813537019861
1.9218775395719152
1.1114550733529476
1.5881218262578762
1.1194932944520322
1.9218775395719152
1.111455073352948
1.111455073352948
6.38608801999298
1.796578749780301
1.5881218262578762
1.111455073352948
5.085810424251639
1.111455073352948
1.111455073352948
1.1114550733529476
1.9218775395719152
1.111455073352948
1.111455073352948
1.111455073352948
1.6982312911098698
1.9218775395719152
1.9126351276824671
1.9218775395719152
1.9218775395719152
1.1114550733529476
5.097132149706017
5.097132149706017
1.111455073352948
1.111455073352948
1.111455073352948
1.9218775395719152
4.278079529827824
1.111455073352948
1.5881218262578762
1.111455073352948
4.628535690217963
1.9218775395719152
1.9126351276824671
1.111455073352948
1.9218775395719152
1.7111862713920278
1.9218775395719152
1.111455073352948
1.111455073352948
1.9218775395719152
1.111455073352948
5.097132149706017
5.293335042814101
1.111455073352948
1.111455073352948
1.5881218262578762
1.111455073352948
1.111455073352948
1.111455073352948
1.1114550733529476
1.9218775395719152
1.1114550733529476
1.111455073352948
1.111455073352948
1.9218775395719152
5.310597678769762
1.111455073352948
1.111455073352948
1.111455073352948
1.111455073352948
1.9218775395719152
1.9218775395719152
1.111455073352948
1.9218775395719152
1.111455073352948
1.111455073352948
1.9218775395719152
1.5881218262578762
1.111455073352948
1.111455073352948
1.111455073352948
1.9218775395719152
1.5881218262578762
6.540442494316094
4.628535690217963
1.1114550733529498
1.1114550733529494
4.848660286014013
1.111455073352948
1.111455073352948
1.111455073352948
1.9218775395719137
1.9218775395719152
1.111455073352948
1.111455073352948
1.9218775395719152
1.5881218262578762
4.141103165772293
1.111455073352948
1.111455073352948
1.111455073352948
1.9218775395719152
1.9218775395719152
1.728262859732041
1.111455073352948
1.7664932091344472
1.9218775395719152
1.111455073352948
1.111455073352948
3.210176032436655
1.111455073352948
1.7111862713920278
1.111455073352948
1.111455073352948
1.5881218262578762
1.111455073352948
1.111455073352948
3.7507437988007073
4.628535690217963
1.9218775395719152
1.111455073352948
1.5881218262578765
1.111455073352948
1.111455073352948
1.5881218262578762
1.9218775395719152
3.506984322668804
4.655673510321769
1.111455073352948
1.921877539571915
1.5881218262578762
1.111455073352948
1.111455073352948
2.0241751713852714
1.9218775395719152
1.111455073352948
1.1114550733529476
1.9218775395719152
1.111455073352948
1.9218775395719152
1.7091161406695807
1.111455073352948
5.097132149706017
1.111455073352948
1.1114550733529476
1.111455073352948
1.9218775395719152
1.5881218262578762
1.111455073352948
3.5569413544999136
5.097132149706017
1.111455073352948
1.9218775395719152
3.241614661551689
1.9218775395719152
2.0391010846792823
1.111455073352948
1.5881218262578762
5.097132149706017
1.111455073352948
1.781364299529998
1.921877539571915
4.873610960797494
1.111455073352948
5.065743608374205
5.227699146914191
1.1114550733529514
1.111455073352948
4.628535690217963
1.111455073352948
1.4936016566121488
1.111455073352948
1.5881218262578762
1.111455073352948
1.5881218262578762
1.111455073352948
1.111455073352948
1.111455073352948
2.7654542175855803
1.111455073352948
2.2737791591415526
1.9218775395719152
4.945229856887665
5.9663907635505256
4.628535690217963
4.484813537019861
1.111455073352948
1.9218775395719152
1.711186271392028
1.5881218262578767
1.111455073352948
1.5881218262578767
1.1114550733529476
1.111455073352948
1.111455073352948
1.5881218262578767
1.8087710986291095
1.9218775395719152
1.111455073352948
1.5881218262578767
1.9218775395719152
2.1186019377119103
4.671912853337413
4.484813537019861
1.9218775395719152
2.7503765866804444
1.111455073352948
1.9218775395719152
1.111455073352948
3.5269838643512412
1.111455073352948
1.111455073352948
1.111455073352948
1.111455073352948
1.1114550733529485
1.111455073352948
1.734208988503532
1.9218775395719152
1.5881218262578767
4.706599523594088
4.671912853337413
1.111455073352948
1.11454353939247
1.0119807076642342
1.111455073352948
1.5881218262578767
1.111455073352948
1.111455073352948
1.111455073352948
1.5881218262578767
1.111455073352948
5.227699146914191
1.9218775395719152
5.097132149706017
1.7231212725634182
1.5881218262578767
1.5881218262578767
1.9218775395719152
1.111455073352948
1.111455073352948
1.9218775395719152
1.111455073352948
1.5881218262578767
4.322645871153572
2.8186265757185622
1.111455073352948
2.9370533705905486
1.921877539571915
1.111455073352948
4.628535690217962
1.9218775395719152
1.111455073352948
3.5375628705764113
1.111455073352948
1.111455073352948
1.9218775395719152
1.111455073352948
1.111455073352948
5.227699146914191
1.111455073352948
5.065743608374205
1.111455073352948
1.7091107170036797
1.111455073352948
1.111455073352948
4.671912853337413
1.111455073352948
1.111455073352948
1.9218775395719152
3.029756201311018
1.9218775395719152
4.873610960797494
1.111455073352948
5.065743608374205
1.5881218262578767
1.111455073352948
1.111455073352948
1.111455073352948
1.5881218262578767
1.0468497809944004
1.111455073352948
1.111455073352948
2.8186265757185622
1.5881218262578767
1.111455073352948
1.111455073352948
1.111455073352948
1.9218775395719152
1.9218775395719152
1.111455073352948
1.111455073352948
1.9218775395719152
2.793903632675207
1.3672826569387333
1.111455073352948
1.9218775395719152
1.111455073352948
1.5881218262578767
1.111455073352948
1.9218775395719152
1.111455073352948
1.111455073352948
1.111455073352948
1.111455073352948
1.5881218262578767
1.111455073352948
1.111455073352948
1.111455073352948
1.111455073352948
1.111455073352948
1.111455073352948
1.9218775395719152
4.403892072469695
1.9218775395719152
2.2097604531268544
1.111455073352948
1.921877539571915
5.293335042814101
1.5881218262578767
1.111455073352948
1.9218775395719152
5.310597678769762
2.2737791591415526
1.9218775395719152
5.293335042814101
1.1114550733529494
1.111455073352948
1.0119807076642315
1.111455073352948
5.097132149706017
2.0881652564891793
1.5881218262578767
1.111455073352948
1.111455073352948
5.293335042814101
3.7104752588151384
1.5881218262578767
1.921877539571915
5.2276991469141905
1.111455073352948
1.111455073352948
1.111455073352948
4.628535690217963
1.9218775395719152
1.111455073352948
1.111455073352948
1.9218775395719152
1.1114550733529476
1.6542913586402022
1.111455073352948
1.9218775395719152
1.5881218262578767
1.111455073352948
1.734208988503532
1.1114550733529494
1.111455073352948
1.9218775395719152
1.5881218262578767
2.045055887864148
1.1292735449510571
1.111455073352948
1.111455073352948
1.111455073352948
5.097132149706017
1.9218775395719152
1.111455073352948
1.111455073352948
1.111455073352948
1.111455073352948
1.9218775395719152
4.455069147333434
1.7091161406695796
1.9218775395719152
2.1186019377119103
1.111455073352948
1.111455073352948
1.111455073352948
1.111455073352948
1.111455073352948
1.111455073352948
1.9236795111422036
1.111455073352948
1.9218775395719152
1.111455073352948
1.111455073352948
1.5881218262578767
5.227699146914191
1.111455073352948
1.111455073352948
1.9218775395719152
1.5881218262578767
1.5881218262578767
1.111455073352948
1.9549009234049899
1.111455073352948
1.111455073352948
4.671912853337413
1.111455073352948
1.111455073352948
1.111455073352948
1.9218775395719152
1.9218775395719152
1.111455073352948
1.5881218262578767
2.209760453126855
2.222081298519637
1.111455073352948
1.5881218262578767
1.111455073352948
1.111455073352948
1.1346271475599128
1.111455073352948
1.111455073352948
1.5881218262578767
1.111455073352948
1.1114550733529476
1.111455073352948
1.111455073352948
5.293335042814101
1.5881218262578767
1.9218775395719152
1.111455073352948
1.9218775395719152
1.111455073352948
1.5881218262578767
2.2483638801384904
1.111455073352948
1.111455073352948
1.111455073352948
5.2900421944506135
1.111455073352948
4.628535690217963
1.9218775395719152
1.111455073352948
4.706599523594088
1.7091161406695823
1.9218775395719152
1.111455073352948
1.9218775395719152
1.9126351276824671
1.111455073352948
1.5881218262578767
5.293335042814101
1.111455073352948
1.111455073352948
1.9218775395719152
1.1114550733529476
1.111455073352948
1.111455073352948
1.9126351276824671
1.9218775395719152
1.111455073352948
1.111455073352948
1.9218775395719152
1.5881218262578767
4.706599523594088
1.111455073352948
1.111455073352948
1.111455073352948
1.5881218262578767
1.9218775395719152
1.872326284677122
1.9218775395719152
5.227699146914191
1.1114550733529476
1.9218775395719152
1.5881218262578767
3.3004267301545482
2.4701792384118293
1.5881218262578767
2.1186019377119103
2.2737791591415526
1.5881218262578767
1.111455073352948
5.293335042814101
1.111455073352948
1.111455073352948
1.111455073352948
1.8496837264702346
5.227699146914191
1.0119807076642342
1.111455073352948
1.111455073352948
2.2737791591415526
1.111455073352948
1.9218775395719152
1.9218775395719152
1.9099758160060616
1.111455073352948
1.8438633337210093
1.9218775395719152
1.111455073352948
0.9764701356866743
4.2003163187377766
3.112984507589371
1.1572909103926374
3.112984507589371
1.1572909103926374
3.112984507589371
1.1572909103926374
4.578663270073127
3.5601416944772093
1.3987843781918896
4.790672448505972
3.4742455127296
2.61137971792914
1.508036889543609
2.425670568327385
0.45405743130225373
5.469662721671275
4.578663270073127
3.5601416944772093
3.302344013670203
0.653503375919476
1.9248253720366915
1.2565119226818637
0.7873423217472089
4.992017559696365
0.7897492606285688
4.998769709644696
3.11298450758937
1.1572909103926368
0.31807695729803354
-1.6652540894065604
-1.7126355755637985
-0.02712279254457417
-2.9014518558395883
-0.733353275974746
-1.6286655910064942
-0.9016154212621825
-0.0676733614292059
0.3821926826049846
-1.5548541554640738
-2.173213602323625
-0.03632558568661649
-2.93434009749791
0.8107325183127206
0.6492244293289672
-1.3962554182645917
0.2796831729310128
0.17063955829152372
-0.016917937976896766
0.9622196908729116
-0.38961948522402856
0.3047227265359806
0.2500661261209982
-0.3164694846167081
-1.7985895195762456
-0.9085064894360401
-1.8012600869271784
0.028143625764703733
0.1682814675015688
-0.7300268941907705
0.580900670891701
-0.6988472070830731
-1.1543854621782907
0.23946823037022374
